{"learner":{"attributes":{"best_iteration":"155","best_score":"0.8088775112469702"},"feature_names":["auction_age","auction_bidfloor","auction_time","creative_height","creative_width","timezone_offset","dia_semana","hora","minuto"],"feature_types":["float","float","float","float","float","float","float","float","float"],"gradient_booster":{"model":{"gbtree_model_param":{"num_parallel_tree":"1","num_trees":"166"},"iteration_indptr":[0,1,2,3,4,5,6,7,8,9,10,11,12,13,14,15,16,17,18,19,20,21,22,23,24,25,26,27,28,29,30,31,32,33,34,35,36,37,38,39,40,41,42,43,44,45,46,47,48,49,50,51,52,53,54,55,56,57,58,59,60,61,62,63,64,65,66,67,68,69,70,71,72,73,74,75,76,77,78,79,80,81,82,83,84,85,86,87,88,89,90,91,92,93,94,95,96,97,98,99,100,101,102,103,104,105,106,107,108,109,110,111,112,113,114,115,116,117,118,119,120,121,122,123,124,125,126,127,128,129,130,131,132,133,134,135,136,137,138,139,140,141,142,143,144,145,146,147,148,149,150,151,152,153,154,155,156,157,158,159,160,161,162,163,164,165,166],"tree_info":[0,0,0,0,0,0,0,0,0,0,0,0,0,0,0,0,0,0,0,0,0,0,0,0,0,0,0,0,0,0,0,0,0,0,0,0,0,0,0,0,0,0,0,0,0,0,0,0,0,0,0,0,0,0,0,0,0,0,0,0,0,0,0,0,0,0,0,0,0,0,0,0,0,0,0,0,0,0,0,0,0,0,0,0,0,0,0,0,0,0,0,0,0,0,0,0,0,0,0,0,0,0,0,0,0,0,0,0,0,0,0,0,0,0,0,0,0,0,0,0,0,0,0,0,0,0,0,0,0,0,0,0,0,0,0,0,0,0,0,0,0,0,0,0,0,0,0,0,0,0,0,0,0,0,0,0,0,0,0,0,0,0,0,0,0,0],"trees":[{"base_weights":[-1.0479394E0,-1.0857295E0,-8.482151E-1,-1.089816E0,-2.754083E-1,-8.9483285E-1,-3.1241518E-1,-1.1027474E0,-1.0469323E0,-1.5552312E-1,-6.72935E-2,-9.557029E-1,-5.794374E-1,2.0455073E-1,-8.3681226E-1,-1.10907555E-1,-1.0272083E0,-1.0360452E0,-1.1036479E-1,-3.7450692E-1,6.566354E-2,-9.6766233E-1,-6.2551284E-1,-8.850757E-1,-3.3709547E-1,3.1258702E-1,-2.1609677E-2,-6.444861E-1,-9.727194E-1,-1.0680411E-1,-9.4731975E-1,-1.0143105E0,-1.0750029E-1,-1.2810188E-2,-5.375988E-1,-9.216845E-1,-9.8830706E-1,-8.2075936E-1,-2.0145571E-1,-1.08899616E-1,-6.1046654E-1,-1.9473588E-1,-5.927015E-1,6.150888E-1,1.4099179E-1,-3.6947584E-1,-1.06352106E-1,-6.0178965E-2,-1.0582723E-1,-1.0062304E0,-8.51448E-1,-1.01888716E-1,-8.5130316E-1,-6.979949E-2,-3.2287892E-2,-9.691748E-2,-4.9617505E-1,-1.0746086E-1,-9.4851094E-1,-9.995022E-2,-5.7917442E-2,-4.3785064E-3,-3.5117265E-2,-3.7674475E-1,-7.2331434E-1,-4.40812E-1,9.4786674E-2,-7.699921E-1,-3.201739E-1,-1.3220342E-3,1.3236669E-1,4.0924102E-1,-1.926742E-1,-1.1414173E-2,-6.763352E-2,-1.033206E-1,-6.215298E-2,-6.290382E-1,-9.2642254E-1,-9.933152E-2,-5.872975E-2,-9.073229E-2,-3.474344E-1,-8.613483E-1,-1.01455644E-1,2.2485952E-3,-8.393688E-2,-9.439316E-2,-4.6829358E-1,-3.4818938E-1,-7.82805E-2,-6.290382E-1,-1.041674E-1,-3.6972507E-3,-4.6207365E-2,1.1727095E-2,8.5480906E-2,-4.193569E-2,5.830861E-3,-8.515888E-2,-3.6254052E-2,-6.72935E-2,-9.674665E-2,-1.1415539E-2,-4.7617623E-1,-9.673889E-1,-7.6116925E-1,-8.296672E-2,-1.2340157E-2,-4.6934703E-1,3.8729973E-2,-3.81708E-2,-7.7065505E-2,-6.3007474E-2,-2.0622982E-2,-8.098795E-2,-1.04911804E-1,-6.40671E-2,-1.0249241E-1,-3.6555722E-2,-6.173299E-2,1.2061182E-2,-4.868654E-3],"categories":[],"categories_nodes":[],"categories_segments":[],"categories_sizes":[],"default_left":[0,0,1,1,0,0,0,0,0,0,0,1,0,0,0,0,0,1,0,0,0,0,0,0,0,0,0,0,0,0,0,0,0,0,0,0,0,0,0,0,0,0,0,0,0,0,0,0,0,0,0,0,0,0,0,0,0,0,0,0,0,0,0,0,0,0,0,0,0,0,0,0,0,0,0,0,0,0,0,0,0,0,0,0,0,0,0,0,0,0,0,0,0,0,0,0,0,0,0,0,0,0,0,0,0,0,1,0,0,0,0,0,0,0,0,0,0,0,0,0,0,0,0],"id":0,"left_children":[1,3,5,7,9,11,13,15,17,19,-1,21,23,25,27,-1,29,31,-1,33,-1,35,37,39,41,43,-1,45,47,-1,49,51,-1,-1,53,55,57,59,61,-1,63,65,67,69,71,73,-1,-1,-1,75,77,-1,79,-1,-1,-1,81,-1,83,-1,-1,-1,-1,85,87,89,-1,91,93,-1,-1,95,97,-1,-1,-1,-1,99,101,-1,-1,-1,103,105,-1,-1,-1,-1,107,109,-1,111,-1,-1,-1,-1,-1,-1,-1,-1,-1,-1,-1,-1,113,115,117,-1,-1,119,121,-1,-1,-1,-1,-1,-1,-1,-1,-1,-1,-1,-1],"loss_changes":[1.0034961E2,3.704785E1,5.315747E1,5.0703125E0,2.6563463E0,3.7220947E1,4.7010178E1,2.9736328E0,4.741211E-1,8.393443E0,0E0,5.901367E0,2.3466621E1,4.0580215E0,1.6201782E0,0E0,1.2017822E0,7.844238E-1,0E0,1.406754E0,0E0,5.9680176E-1,4.8374786E0,7.246605E0,6.455158E0,3.5610294E0,0E0,4.050585E0,8.993645E-1,0E0,4.8953247E-1,2.0605469E-1,0E0,0E0,5.2481174E-1,9.7647705E0,2.697876E0,1.1936646E0,4.655943E-1,0E0,1.3754139E0,3.344548E1,2.8507519E0,1.1208872E1,4.2082887E0,1.866925E0,0E0,0E0,0E0,8.329468E-1,1.0384827E0,0E0,1.1179543E0,0E0,0E0,0E0,2.9232082E0,0E0,3.4394531E0,0E0,0E0,0E0,0E0,4.161833E0,1.8674488E0,2.8106003E0,0E0,8.0477905E-1,1.0670431E0,0E0,0E0,3.2685275E0,1.2329192E0,0E0,0E0,0E0,0E0,1.3298025E0,8.3473206E-2,0E0,0E0,0E0,1.1621971E0,2.7651825E0,0E0,0E0,0E0,0E0,2.517991E0,3.693037E0,0E0,6.735029E-1,0E0,0E0,0E0,0E0,0E0,0E0,0E0,0E0,0E0,0E0,0E0,0E0,9.413624E-1,1.1641083E0,4.8792877E0,0E0,0E0,6.9241047E-1,1.462892E-1,0E0,0E0,0E0,0E0,0E0,0E0,0E0,0E0,0E0,0E0,0E0,0E0],"parents":[2147483647,0,0,1,1,2,2,3,3,4,4,5,5,6,6,7,7,8,8,9,9,11,11,12,12,13,13,14,14,16,16,17,17,19,19,21,21,22,22,23,23,24,24,25,25,27,27,28,28,30,30,31,31,34,34,35,35,36,36,37,37,38,38,40,40,41,41,42,42,43,43,44,44,45,45,49,49,50,50,52,52,56,56,58,58,63,63,64,64,65,65,67,67,68,68,71,71,72,72,77,77,78,78,82,82,83,83,88,88,89,89,91,91,104,104,105,105,106,106,109,109,110,110],"right_children":[2,4,6,8,10,12,14,16,18,20,-1,22,24,26,28,-1,30,32,-1,34,-1,36,38,40,42,44,-1,46,48,-1,50,52,-1,-1,54,56,58,60,62,-1,64,66,68,70,72,74,-1,-1,-1,76,78,-1,80,-1,-1,-1,82,-1,84,-1,-1,-1,-1,86,88,90,-1,92,94,-1,-1,96,98,-1,-1,-1,-1,100,102,-1,-1,-1,104,106,-1,-1,-1,-1,108,110,-1,112,-1,-1,-1,-1,-1,-1,-1,-1,-1,-1,-1,-1,114,116,118,-1,-1,120,122,-1,-1,-1,-1,-1,-1,-1,-1,-1,-1,-1,-1],"split_conditions":[3.2E2,3.269E0,4E0,4E0,1.5160429E9,2.53E0,8E0,8.5E-1,8E0,1.5160357E9,-6.72935E-2,4.8E2,2.048E3,3E-2,7.68E2,-1.10907555E-1,2.5E2,3E1,-1.1036479E-1,1.5160054E9,6.566354E-2,1.7094018E-1,1E0,4.29E0,3.269E0,1.5160311E9,-2.1609677E-2,1.516021E9,1.3E1,-1.0680411E-1,1.5160348E9,1.5160426E9,-1.0750029E-1,-1.2810188E-2,1.5160244E9,1.7E-1,5.1E-1,1.516034E9,1.5160357E9,-1.08899616E-1,2.1E1,2.86E0,1.5160288E9,3.4E1,3.2E1,1.09E-1,-1.06352106E-1,-6.0178965E-2,-1.0582723E-1,2.86E0,1.5160411E9,-1.01888716E-1,8E-2,-6.979949E-2,-3.2287892E-2,-9.691748E-2,9E0,-1.0746086E-1,1.2452108E0,-9.995022E-2,-5.7917442E-2,-4.3785064E-3,-3.5117265E-2,1.5160285E9,4.1E1,1.5160457E9,9.4786674E-2,4.2E1,2.1E1,-1.3220342E-3,1.3236669E-1,2E1,2.1E1,-1.1414173E-2,-6.763352E-2,-1.033206E-1,-6.215298E-2,1.5160378E9,1.2E1,-9.933152E-2,-5.872975E-2,-9.073229E-2,1.5160301E9,7.6E-1,-1.01455644E-1,2.2485952E-3,-8.393688E-2,-9.439316E-2,1.5160177E9,4.6E1,-7.82805E-2,1.5160022E9,-1.041674E-1,-3.6972507E-3,-4.6207365E-2,1.1727095E-2,8.5480906E-2,-4.193569E-2,5.830861E-3,-8.515888E-2,-3.6254052E-2,-6.72935E-2,-9.674665E-2,-1.1415539E-2,3.6E1,5.48E-1,2.1E1,-8.296672E-2,-1.2340157E-2,3E1,1.5160244E9,-3.81708E-2,-7.7065505E-2,-6.3007474E-2,-2.0622982E-2,-8.098795E-2,-1.04911804E-1,-6.40671E-2,-1.0249241E-1,-3.6555722E-2,-6.173299E-2,1.2061182E-2,-4.868654E-3],"split_indices":[3,1,5,5,2,1,5,1,5,2,0,4,3,1,3,0,3,0,0,2,0,1,1,1,1,2,0,2,8,0,2,2,0,0,2,1,1,2,2,0,8,1,2,8,8,1,0,0,0,1,2,0,1,0,0,0,7,0,1,0,0,0,0,2,8,2,0,8,8,0,0,8,7,0,0,0,0,2,8,0,0,0,2,1,0,0,0,0,2,8,0,2,0,0,0,0,0,0,0,0,0,0,0,0,8,1,0,0,0,8,2,0,0,0,0,0,0,0,0,0,0,0,0],"split_type":[0,0,0,0,0,0,0,0,0,0,0,0,0,0,0,0,0,0,0,0,0,0,0,0,0,0,0,0,0,0,0,0,0,0,0,0,0,0,0,0,0,0,0,0,0,0,0,0,0,0,0,0,0,0,0,0,0,0,0,0,0,0,0,0,0,0,0,0,0,0,0,0,0,0,0,0,0,0,0,0,0,0,0,0,0,0,0,0,0,0,0,0,0,0,0,0,0,0,0,0,0,0,0,0,0,0,0,0,0,0,0,0,0,0,0,0,0,0,0,0,0,0,0],"sum_hessian":[1.3416561E4,1.1278172E4,2.138389E3,1.1221238E4,5.6934223E1,1.966612E3,1.7177684E2,8.6024795E3,2.6187578E3,4.4811348E1,1.2122877E1,1.646763E3,3.1984912E2,8.680846E1,8.4968376E1,7.924898E3,6.775822E2,2.2131826E3,4.0557516E2,3.571919E1,9.092157E0,1.5873392E3,5.9423744E1,1.40279E2,1.7957011E2,6.927358E1,1.7534876E1,3.755927E1,4.7409107E1,4.4021198E2,2.3737025E2,1.437968E3,7.7521466E2,1.4937116E1,2.0782074E1,5.0602185E2,1.0813173E3,4.004879E1,1.9374954E1,7.87987E1,6.1480305E1,1.1646621E2,6.3103905E1,2.4137514E1,4.5136066E1,2.3812794E1,1.3746476E1,1.0391037E1,3.701807E1,1.4114493E2,9.6225334E1,1.3935896E3,4.4378387E1,1.0607517E1,1.0174558E1,4.5406668E2,5.1955185E1,3.3305438E2,7.4826294E2,2.1215034E1,1.8833755E1,1.0066318E1,9.308638E0,2.1431515E1,4.004879E1,9.633357E1,2.0132635E1,3.712631E1,2.5977592E1,1.3313517E1,1.08239975E1,2.4895193E1,2.0240875E1,1.3746476E1,1.0066318E1,1.3032092E2,1.08239975E1,2.6627033E1,6.9598305E1,2.7059992E1,1.7318396E1,1.2447597E1,3.950759E1,3.2861655E2,4.1964636E2,1.2014637E1,9.416878E0,2.0024395E1,2.0024395E1,7.739158E1,1.8941996E1,2.6627033E1,1.0499277E1,9.092157E0,1.6885435E1,1.5803036E1,9.092157E0,1.0282797E1,9.958077E0,1.3313517E1,1.3313517E1,1.2122877E1,5.7475426E1,1.4720636E1,2.4786953E1,1.554326E2,1.7318396E2,9.092157E0,1.0932237E1,5.8774303E1,1.8617275E1,1.1040477E1,1.55865555E1,1.4937116E1,9.849837E0,5.6825985E1,9.860661E1,1.2122877E2,5.1955185E1,3.658511E1,2.2189194E1,9.416878E0,9.2003975E0],"tree_param":{"num_deleted":"0","num_feature":"9","num_nodes":"123","size_leaf_vector":"1"}},{"base_weights":[-1.0262966E0,-1.066493E0,-8.1790465E-1,-1.0708535E0,-2.556979E-1,-8.659116E-1,-2.9058534E-1,-1.0846972E0,-1.0251467E0,-1.4340419E-1,-6.418995E-2,-9.2909664E-1,-5.4840106E-1,1.8215644E-1,-8.073321E-1,-1.0914721E-1,-1.0043911E0,-1.0135849E0,-1.08569525E-1,-3.548283E-1,6.0811847E-2,-9.415847E-1,-5.940056E-1,-8.5652083E-1,-3.140334E-1,-1.5472151E-1,2.9148364E-1,-6.1378837E-1,-9.4772637E-1,-1.0476239E-1,-9.20697E-1,-9.905736E-1,-1.0550288E-1,-1.1720981E-2,-5.1499325E-1,-8.935629E-1,-9.632607E-1,-7.906478E-1,-1.859943E-1,-1.0702134E0,-5.798468E-1,-1.7971604E-1,-5.62035E-1,-4.605292E-2,2.7149184E-2,5.6360656E-1,1.2695149E-1,-3.4508756E-1,-1.0442745E-1,-5.714118E-2,-1.0377661E-1,-9.823052E-1,-8.217412E-1,-9.953844E-2,-8.2179767E-1,-6.673952E-2,-3.177583E-2,-9.4303936E-2,-4.6720296E-1,-1.0546451E-1,-9.215422E-1,-5.782091E-1,-1.0097619E-1,-3.9928253E-3,-3.276382E-2,-7.532281E-2,-1.10859804E-1,-3.5266373E-1,-6.9236994E-1,-4.1239226E-1,7.988063E-1,-7.3983616E-1,-2.9718825E-1,5.174776E-3,1.0669955E-1,7.197676E-2,-5.5252366E-2,-1.0438135E-2,-6.4580426E-2,-1.0107192E-1,-5.908975E-2,-5.9797084E-1,-8.990149E-1,-9.693224E-2,-5.5591166E-2,-8.80664E-2,-3.2343757E-1,-8.3121717E-1,-9.9084675E-1,-8.6536095E-2,-2.1575227E-2,-3.8940662E-3,-5.7351854E-2,-9.1792814E-2,-4.4093716E-1,-3.2327023E-1,-7.51937E-2,1.0226049E-1,5.6971367E-2,-5.9779024E-1,-1.0215894E-1,-3.3730806E-3,-4.3328185E-2,-3.0279754E-2,9.760098E-2,-8.229837E-2,-3.3778127E-2,-6.418995E-2,-9.416676E-2,-1.0969762E-2,-4.7469616E-1,-9.414654E-1,-7.2869885E-1,-1.0000706E-1,-7.6971614E-1,-6.420215E-2,-2.0603491E-2,-4.3971258E-1,3.5099894E-2,-3.565198E-2,-7.399274E-2,3.891931E-2,-2.2372775E-2,-6.472248E-2,-2.4260117E-2,-7.784476E-2,-1.0276627E-1,-6.0726356E-2,-1.0022286E-1,-5.3332258E-2,-9.26915E-2,-3.3947933E-2,-5.8527388E-2,1.16374055E-2,-5.139987E-3],"categories":[],"categories_nodes":[],"categories_segments":[],"categories_sizes":[],"default_left":[0,0,1,1,0,0,0,0,0,0,0,1,0,1,0,0,0,1,0,0,0,0,0,0,0,0,0,0,0,0,0,0,0,0,0,0,0,0,0,0,0,0,0,0,0,0,0,0,0,0,0,0,0,0,0,0,0,0,0,0,0,0,0,0,0,0,0,0,0,0,0,0,0,0,0,0,0,0,0,0,0,0,0,0,0,0,0,0,0,0,0,0,0,0,0,0,0,0,0,0,0,0,0,0,0,0,0,0,0,0,0,0,1,0,0,0,0,0,0,0,0,0,0,0,0,0,0,0,0,0,0,0,0,0,0],"id":1,"left_children":[1,3,5,7,9,11,13,15,17,19,-1,21,23,25,27,-1,29,31,-1,33,-1,35,37,39,41,43,45,47,49,-1,51,53,-1,-1,55,57,59,61,63,65,67,69,71,-1,-1,73,75,77,-1,-1,-1,79,81,-1,83,-1,-1,-1,85,-1,87,89,-1,-1,-1,-1,-1,91,93,95,97,99,101,-1,-1,-1,103,-1,-1,-1,-1,105,107,-1,-1,-1,109,111,113,-1,-1,-1,-1,-1,115,117,-1,-1,-1,119,-1,-1,-1,-1,121,-1,-1,-1,-1,-1,123,125,127,-1,129,-1,-1,131,133,-1,-1,-1,-1,-1,-1,-1,-1,-1,-1,-1,-1,-1,-1,-1,-1],"loss_changes":[1.0290039E2,3.6430664E1,5.056726E1,5.4208984E0,2.3733552E0,3.6393555E1,4.1435165E1,3.2070312E0,5.930176E-1,7.41829E0,0E0,5.85437E0,2.1953873E1,3.3259535E0,1.6174431E0,0E0,1.3070068E0,9.0600586E-1,0E0,1.3100739E0,0E0,6.7578125E-1,4.488554E0,7.2056885E0,5.7739487E0,3.0549972E0,2.9551783E0,3.9037514E0,9.340973E-1,0E0,5.467529E-1,2.6342773E-1,0E0,0E0,4.256482E-1,9.533752E0,2.8562012E0,1.2166252E0,4.0272582E-1,5.9326172E-2,1.2862434E0,2.6711815E1,2.6757793E0,0E0,0E0,6.433196E0,4.729714E0,1.6836014E0,0E0,0E0,0E0,8.6808014E-1,1.0416946E0,0E0,1.1339512E0,0E0,0E0,0E0,2.755374E0,0E0,3.541504E0,2.1008582E0,0E0,0E0,0E0,0E0,0E0,1.4928744E0,1.8069992E0,2.609764E0,5.7615566E-1,8.3491707E-1,9.3091965E-1,0E0,0E0,0E0,1.3213797E0,0E0,0E0,0E0,0E0,1.2693901E0,1.1828232E-1,0E0,0E0,0E0,1.2259636E0,2.8058167E0,2.4353027E-2,0E0,0E0,0E0,0E0,0E0,8.297224E-1,3.2047634E0,0E0,0E0,0E0,6.423893E-1,0E0,0E0,0E0,0E0,2.1356385E0,0E0,0E0,0E0,0E0,0E0,7.579031E-1,1.2436676E0,4.8558273E0,0E0,2.4634743E-1,0E0,0E0,6.440258E-1,1.44261E-1,0E0,0E0,0E0,0E0,0E0,0E0,0E0,0E0,0E0,0E0,0E0,0E0,0E0,0E0,0E0,0E0],"parents":[2147483647,0,0,1,1,2,2,3,3,4,4,5,5,6,6,7,7,8,8,9,9,11,11,12,12,13,13,14,14,16,16,17,17,19,19,21,21,22,22,23,23,24,24,25,25,26,26,27,27,28,28,30,30,31,31,34,34,35,35,36,36,37,37,38,38,39,39,40,40,41,41,42,42,45,45,46,46,47,47,51,51,52,52,54,54,58,58,60,60,61,61,67,67,68,68,69,69,70,70,71,71,72,72,76,76,81,81,82,82,86,86,87,87,88,88,94,94,95,95,99,99,104,104,110,110,111,111,112,112,114,114,117,117,118,118],"right_children":[2,4,6,8,10,12,14,16,18,20,-1,22,24,26,28,-1,30,32,-1,34,-1,36,38,40,42,44,46,48,50,-1,52,54,-1,-1,56,58,60,62,64,66,68,70,72,-1,-1,74,76,78,-1,-1,-1,80,82,-1,84,-1,-1,-1,86,-1,88,90,-1,-1,-1,-1,-1,92,94,96,98,100,102,-1,-1,-1,104,-1,-1,-1,-1,106,108,-1,-1,-1,110,112,114,-1,-1,-1,-1,-1,116,118,-1,-1,-1,120,-1,-1,-1,-1,122,-1,-1,-1,-1,-1,124,126,128,-1,130,-1,-1,132,134,-1,-1,-1,-1,-1,-1,-1,-1,-1,-1,-1,-1,-1,-1,-1,-1],"split_conditions":[3.2E2,3.269E0,4E0,4E0,1.5160429E9,2.53E0,8E0,8.5E-1,8E0,1.5160361E9,-6.418995E-2,4.8E2,2.048E3,4.8E2,7.68E2,-1.0914721E-1,2.5E2,3E1,-1.08569525E-1,1.5160054E9,6.0811847E-2,1.7094018E-1,1E0,4.29E0,3.269E0,3.7E1,1.5160311E9,1.516021E9,1.3E1,-1.0476239E-1,1.5160348E9,1.5160426E9,-1.0550288E-1,-1.1720981E-2,1.5160244E9,1.7E-1,5.1E-1,5.71E-1,1.5160357E9,7E0,2.1E1,2.86E0,1.5160288E9,-4.605292E-2,2.7149184E-2,3.4E1,1.2E1,1.09E-1,-1.0442745E-1,-5.714118E-2,-1.0377661E-1,2.86E0,1.5160411E9,-9.953844E-2,8E-2,-6.673952E-2,-3.177583E-2,-9.4303936E-2,9E0,-1.0546451E-1,1.2452108E0,1.5160338E9,-1.0097619E-1,-3.9928253E-3,-3.276382E-2,-7.532281E-2,-1.10859804E-1,1.5160115E9,4.1E1,1.5160457E9,2.2E1,4.2E1,2.1E1,5.174776E-3,1.0669955E-1,7.197676E-2,1.5160379E9,-1.0438135E-2,-6.4580426E-2,-1.0107192E-1,-5.908975E-2,1.5160378E9,1.2E1,-9.693224E-2,-5.5591166E-2,-8.80664E-2,2.3E1,7.6E-1,2.3E1,-8.6536095E-2,-2.1575227E-2,-3.8940662E-3,-5.7351854E-2,-9.1792814E-2,1.5160242E9,4.6E1,-7.51937E-2,1.0226049E-1,5.6971367E-2,1.5160022E9,-1.0215894E-1,-3.3730806E-3,-4.3328185E-2,-3.0279754E-2,1.5160449E9,-8.229837E-2,-3.3778127E-2,-6.418995E-2,-9.416676E-2,-1.0969762E-2,1.5160383E9,5.48E-1,2.1E1,-1.0000706E-1,2.3E1,-6.420215E-2,-2.0603491E-2,3E1,5.3E1,-3.565198E-2,-7.399274E-2,3.891931E-2,-2.2372775E-2,-6.472248E-2,-2.4260117E-2,-7.784476E-2,-1.0276627E-1,-6.0726356E-2,-1.0022286E-1,-5.3332258E-2,-9.26915E-2,-3.3947933E-2,-5.8527388E-2,1.16374055E-2,-5.139987E-3],"split_indices":[3,1,5,5,2,1,5,1,5,2,0,4,3,3,3,0,3,0,0,2,0,1,1,1,1,8,2,2,8,0,2,2,0,0,2,1,1,1,2,7,8,1,2,0,0,8,8,1,0,0,0,1,2,0,1,0,0,0,7,0,1,2,0,0,0,0,0,2,8,2,8,8,8,0,0,0,2,0,0,0,0,2,8,0,0,0,8,1,7,0,0,0,0,0,2,8,0,0,0,2,0,0,0,0,2,0,0,0,0,0,2,1,0,0,8,0,0,8,8,0,0,0,0,0,0,0,0,0,0,0,0,0,0,0,0],"split_type":[0,0,0,0,0,0,0,0,0,0,0,0,0,0,0,0,0,0,0,0,0,0,0,0,0,0,0,0,0,0,0,0,0,0,0,0,0,0,0,0,0,0,0,0,0,0,0,0,0,0,0,0,0,0,0,0,0,0,0,0,0,0,0,0,0,0,0,0,0,0,0,0,0,0,0,0,0,0,0,0,0,0,0,0,0,0,0,0,0,0,0,0,0,0,0,0,0,0,0,0,0,0,0,0,0,0,0,0,0,0,0,0,0,0,0,0,0,0,0,0,0,0,0,0,0,0,0,0,0,0,0,0,0,0,0],"sum_hessian":[1.2387321E4,1.0380855E4,2.0064661E3,1.0325007E4,5.58485E1,1.8384519E3,1.6801419E2,7.9072896E3,2.4177175E3,4.4330177E1,1.1518323E1,1.5317129E3,3.0673892E2,8.808124E1,7.9932945E1,7.2804956E3,6.267939E2,2.0449641E3,3.727534E2,3.500902E1,9.321153E0,1.4749355E3,5.6777393E1,1.3137177E2,1.7536717E2,2.1479536E1,6.66017E1,3.5863865E1,4.406908E1,4.0570593E2,2.2108794E2,1.3309001E3,7.140639E2,1.4793459E1,2.0215565E1,4.7183664E2,1.0030989E3,3.767973E1,1.9097668E1,7.250416E1,5.8867607E1,1.1487544E2,6.0491726E1,1.2459409E1,9.020128E0,2.4181667E1,4.2420036E1,2.3190466E1,1.26734E1,9.926833E0,3.4142246E1,1.307552E2,9.033273E1,1.2892534E3,4.1646736E1,1.0059168E1,1.0156397E1,4.2169025E2,5.01464E1,3.067917E2,6.963072E2,2.0978853E1,1.6700874E1,1.003316E1,9.064507E0,1.0058956E1,6.24452E1,2.0868486E1,3.799912E1,9.327481E1,2.1600632E1,3.5120575E1,2.5371151E1,1.2536763E1,1.1644903E1,9.279154E0,3.314088E1,1.3628639E1,9.561826E0,1.20430374E2,1.0324827E1,2.5430124E1,6.490261E1,2.5083645E1,1.656309E1,1.16154175E1,3.8530983E1,3.0794897E2,3.883582E2,1.0931234E1,1.0047619E1,9.107561E0,1.1760925E1,1.8632908E1,1.9366213E1,7.542872E1,1.7846088E1,9.174462E0,1.242617E1,2.5424492E1,9.696084E0,9.066866E0,1.6304285E1,1.2277144E1,2.0863737E1,1.2476976E1,1.2953148E1,1.1518323E1,5.3384285E1,1.668253E1,2.1848454E1,1.4443752E2,1.6351147E2,3.6942612E2,1.8932087E1,9.500402E0,9.865809E0,5.675937E1,1.866935E1,1.0725979E1,1.4698513E1,1.082726E1,1.0036477E1,1.1506465E1,1.0341989E1,5.3426796E1,9.101072E1,1.1546857E2,4.8042908E1,9.315788E0,9.616298E0,3.558666E1,2.117271E1,9.447356E0,9.221993E0],"tree_param":{"num_deleted":"0","num_feature":"9","num_nodes":"135","size_leaf_vector":"1"}},{"base_weights":[-1.0056804E0,-1.048515E0,-7.882004E-1,-1.0531757E0,-2.3728561E-1,-8.375488E-1,-2.7019113E-1,-1.068051E0,-1.004307E0,-1.322471E-1,-6.1153915E-2,-9.030848E-1,-5.184118E-1,1.6258949E-1,-7.784546E-1,-1.0753317E-1,-9.824209E-1,-9.919975E-1,-1.0691557E-1,-3.4759372E-1,6.503026E-2,-9.1611296E-1,-5.6403387E-1,-8.286476E-1,-2.919665E-1,-1.0476795E-1,2.9092783E-1,-5.840202E-1,-9.234094E-1,-1.0283078E-1,-8.9461887E-1,-9.6758103E-1,-1.0362098E-1,-1.0716632E-2,-5.089903E-1,-8.6590326E-1,-9.389057E-1,-7.61753E-1,-1.7158054E-1,-1.0529239E0,-5.497643E-1,-1.6516693E-1,-5.323157E-1,2.9106358E-2,-7.149203E-2,-2.1245297E-2,3.922179E-1,-3.2195905E-1,-1.02621816E-1,-5.4185707E-2,-1.0183375E-1,-9.5911753E-1,-7.924862E-1,-9.726468E-2,-7.927606E-1,-6.18016E-2,-3.2762922E-2,-9.1744155E-1,-4.394676E-1,-1.0358367E-1,-8.951514E-1,-9.545245E-2,-5.1650137E-2,-2.8932517E-2,-2.9060692E-3,-7.244295E-2,-1.0939776E-1,-3.2893372E-1,-6.619395E-1,-3.8522384E-1,6.8653905E-1,-7.006234E-1,-2.6197392E-1,5.9678406E-1,2.202076E-1,-9.539416E-3,-6.1595347E-2,-9.891006E-2,-5.6104727E-2,-5.677273E-1,-8.720859E-1,-9.460568E-2,-5.2538183E-2,-7.6754147E-1,-9.3069386E-1,-7.870584E-2,-2.7591753E-1,-8.014901E-1,-9.679799E-1,-3.4596433E-3,-5.4745734E-2,-8.925067E-2,-4.1431123E-1,-2.9969555E-1,-7.2154246E-2,8.7789774E-2,3.3825643E-2,-5.540585E-1,-1.0075207E-1,-6.5771625E-3,-4.56143E-2,3.0019233E-2,8.0655426E-2,5.9324306E-2,1.5171177E-2,-7.9487555E-2,-3.1425994E-2,-6.1153915E-2,-9.164428E-2,-8.514617E-2,-5.10084E-2,-9.015576E-1,-1.06319524E-1,7.1318983E-3,-4.3105245E-1,-9.1611546E-1,-6.9669914E-1,-9.7764626E-2,-7.413108E-2,-6.1225284E-2,-1.9014757E-2,-4.112373E-1,3.1814512E-2,-3.325307E-2,-6.776125E-2,-1.888174E-2,2.2486787E-2,-1.0502285E-1,-8.8040136E-2,-5.884996E-2,-1.6339876E-2,-7.47396E-2,-1.0071855E-1,-5.7455774E-2,-9.803791E-2,-3.1472474E-2,-5.5399824E-2,1.0497137E-2,-4.6935333E-3],"categories":[],"categories_nodes":[],"categories_segments":[],"categories_sizes":[],"default_left":[0,0,1,1,0,0,0,0,0,0,0,1,0,0,0,0,0,1,0,0,0,0,0,0,0,0,0,0,0,0,0,0,0,0,0,0,0,0,0,0,0,0,0,0,0,0,0,0,0,0,0,0,0,0,0,0,0,0,0,0,0,0,0,0,0,0,0,0,0,0,0,0,0,0,0,0,0,0,0,0,0,0,0,0,0,0,0,0,0,0,0,0,0,0,0,0,0,0,0,0,0,0,0,0,0,0,0,0,0,0,0,0,0,0,0,0,1,0,0,0,0,0,0,0,0,0,0,0,0,0,0,0,0,0,0,0,0,0,0],"id":2,"left_children":[1,3,5,7,9,11,13,15,17,19,-1,21,23,25,27,-1,29,31,-1,33,-1,35,37,39,41,43,45,47,49,-1,51,53,-1,-1,55,57,59,61,63,65,67,69,71,-1,-1,-1,73,75,-1,-1,-1,77,79,-1,81,-1,-1,83,85,-1,87,-1,-1,-1,-1,-1,-1,89,91,93,95,97,99,101,103,-1,-1,-1,-1,105,107,-1,-1,109,111,-1,113,115,117,-1,-1,-1,119,121,-1,-1,-1,123,-1,-1,-1,-1,-1,-1,125,-1,-1,-1,-1,-1,-1,127,-1,-1,129,131,133,-1,-1,-1,-1,135,137,-1,-1,-1,-1,-1,-1,-1,-1,-1,-1,-1,-1,-1,-1,-1,-1],"loss_changes":[1.0567285E2,3.5850586E1,4.7964966E1,5.8291016E0,2.114008E0,3.552124E1,3.652E1,3.4707031E0,7.211914E-1,7.7881002E0,0E0,5.783325E0,2.0517975E1,3.1250176E0,1.610096E0,0E0,1.4194336E0,1.0374756E0,0E0,1.3362508E0,0E0,7.56958E-1,4.1663837E0,7.185837E0,5.165159E0,7.4503093E0,3.2038298E0,3.759426E0,9.683418E-1,0E0,6.034546E-1,3.2055664E-1,0E0,0E0,2.1628666E-1,9.29303E0,3.02417E0,1.234251E0,3.2458347E-1,1.2068939E-1,1.2048359E0,2.1684685E1,2.5045986E0,0E0,0E0,0E0,1.6737261E0,1.5143526E0,0E0,0E0,0E0,9.0257263E-1,1.0413094E0,0E0,1.1473179E0,0E0,0E0,6.57959E-2,2.5963106E0,0E0,3.6531372E0,0E0,0E0,0E0,0E0,0E0,0E0,1.3531578E0,1.7481403E0,2.41465E0,1.2909231E0,1.0526829E0,8.944334E-1,1.1793947E0,2.243709E0,0E0,0E0,0E0,0E0,1.2082901E0,1.5092468E-1,0E0,0E0,3.7809944E-1,4.161682E-1,0E0,1.9266415E0,2.8431396E0,6.500244E-2,0E0,0E0,0E0,7.6000285E-1,2.7726579E0,0E0,0E0,0E0,4.989004E-1,0E0,0E0,0E0,0E0,0E0,0E0,8.993558E-1,0E0,0E0,0E0,0E0,0E0,0E0,1.4205933E-2,0E0,0E0,9.349761E-1,1.3253403E0,4.827667E0,0E0,0E0,0E0,0E0,5.960169E-1,1.1851622E-1,0E0,0E0,0E0,0E0,0E0,0E0,0E0,0E0,0E0,0E0,0E0,0E0,0E0,0E0,0E0,0E0],"parents":[2147483647,0,0,1,1,2,2,3,3,4,4,5,5,6,6,7,7,8,8,9,9,11,11,12,12,13,13,14,14,16,16,17,17,19,19,21,21,22,22,23,23,24,24,25,25,26,26,27,27,28,28,30,30,31,31,34,34,35,35,36,36,37,37,38,38,39,39,40,40,41,41,42,42,46,46,47,47,51,51,52,52,54,54,57,57,58,58,60,60,67,67,68,68,69,69,70,70,71,71,72,72,73,73,74,74,79,79,80,80,83,83,84,84,86,86,87,87,88,88,92,92,93,93,97,97,104,104,111,111,114,114,115,115,116,116,121,121,122,122],"right_children":[2,4,6,8,10,12,14,16,18,20,-1,22,24,26,28,-1,30,32,-1,34,-1,36,38,40,42,44,46,48,50,-1,52,54,-1,-1,56,58,60,62,64,66,68,70,72,-1,-1,-1,74,76,-1,-1,-1,78,80,-1,82,-1,-1,84,86,-1,88,-1,-1,-1,-1,-1,-1,90,92,94,96,98,100,102,104,-1,-1,-1,-1,106,108,-1,-1,110,112,-1,114,116,118,-1,-1,-1,120,122,-1,-1,-1,124,-1,-1,-1,-1,-1,-1,126,-1,-1,-1,-1,-1,-1,128,-1,-1,130,132,134,-1,-1,-1,-1,136,138,-1,-1,-1,-1,-1,-1,-1,-1,-1,-1,-1,-1,-1,-1,-1,-1],"split_conditions":[3.2E2,3.269E0,4E0,4E0,1.5160429E9,2.53E0,8E0,8.5E-1,8E0,1.5160365E9,-6.1153915E-2,4.8E2,2.048E3,2E1,7.68E2,-1.0753317E-1,2.5E2,3E1,-1.0691557E-1,1.5160054E9,6.503026E-2,1.7094018E-1,1E0,4.29E0,3.269E0,1.1E1,1.2E1,1.516021E9,1.3E1,-1.0283078E-1,1.5160348E9,1.5160426E9,-1.0362098E-1,-1.0716632E-2,1.516026E9,1.7E-1,5.1E-1,1.516034E9,1.7E1,7E0,2.1E1,2.86E0,1.5160314E9,2.9106358E-2,-7.149203E-2,-2.1245297E-2,1.5160314E9,1.09E-1,-1.02621816E-1,-5.4185707E-2,-1.0183375E-1,2.86E0,1.5160411E9,-9.726468E-2,8E-2,-6.18016E-2,-3.2762922E-2,7.68E2,1.1E1,-1.0358367E-1,1.2452108E0,-9.545245E-2,-5.1650137E-2,-2.8932517E-2,-2.9060692E-3,-7.244295E-2,-1.0939776E-1,7.57E0,4.1E1,1.5160457E9,1.5160297E9,4.2E1,2E1,1.5160177E9,3.4E1,-9.539416E-3,-6.1595347E-2,-9.891006E-2,-5.6104727E-2,1.5160378E9,1.2E1,-9.460568E-2,-5.2538183E-2,9.589E-2,9.589E-2,-7.870584E-2,1.5160301E9,7.6E-1,2.3E1,-3.4596433E-3,-5.4745734E-2,-8.925067E-2,1.5160242E9,4.6E1,-7.2154246E-2,8.7789774E-2,3.3825643E-2,1.5160022E9,-1.0075207E-1,-6.5771625E-3,-4.56143E-2,3.0019233E-2,8.0655426E-2,5.9324306E-2,1.5160385E9,-7.9487555E-2,-3.1425994E-2,-6.1153915E-2,-9.164428E-2,-8.514617E-2,-5.10084E-2,1.5159954E9,-1.06319524E-1,7.1318983E-3,3.6E1,5.48E-1,2.1E1,-9.7764626E-2,-7.413108E-2,-6.1225284E-2,-1.9014757E-2,3E1,5.3E1,-3.325307E-2,-6.776125E-2,-1.888174E-2,2.2486787E-2,-1.0502285E-1,-8.8040136E-2,-5.884996E-2,-1.6339876E-2,-7.47396E-2,-1.0071855E-1,-5.7455774E-2,-9.803791E-2,-3.1472474E-2,-5.5399824E-2,1.0497137E-2,-4.6935333E-3],"split_indices":[3,1,5,5,2,1,5,1,5,2,0,4,3,8,3,0,3,0,0,2,0,1,1,1,1,8,7,2,8,0,2,2,0,0,2,1,1,2,7,7,8,1,2,0,0,0,2,1,0,0,0,1,2,0,1,0,0,3,7,0,1,0,0,0,0,0,0,1,8,2,2,8,7,2,8,0,0,0,0,2,8,0,0,1,1,0,2,1,7,0,0,0,2,8,0,0,0,2,0,0,0,0,0,0,2,0,0,0,0,0,0,2,0,0,8,1,0,0,0,0,0,8,8,0,0,0,0,0,0,0,0,0,0,0,0,0,0,0,0],"split_type":[0,0,0,0,0,0,0,0,0,0,0,0,0,0,0,0,0,0,0,0,0,0,0,0,0,0,0,0,0,0,0,0,0,0,0,0,0,0,0,0,0,0,0,0,0,0,0,0,0,0,0,0,0,0,0,0,0,0,0,0,0,0,0,0,0,0,0,0,0,0,0,0,0,0,0,0,0,0,0,0,0,0,0,0,0,0,0,0,0,0,0,0,0,0,0,0,0,0,0,0,0,0,0,0,0,0,0,0,0,0,0,0,0,0,0,0,0,0,0,0,0,0,0,0,0,0,0,0,0,0,0,0,0,0,0,0,0,0,0],"sum_hessian":[1.1431305E4,9.547104E3,1.8842013E3,9.49227E3,5.483375E1,1.7197515E3,1.6444983E2,7.261165E3,2.2311047E3,4.3873512E1,1.096024E1,1.4252427E3,2.9450876E2,8.918765E1,7.526218E1,6.6815107E3,5.7965424E2,1.8888574E3,3.4224734E2,3.4841454E1,9.032058E0,1.3708647E3,5.4377995E1,1.23141914E2,1.7136685E2,2.8986322E1,6.020133E1,3.429275E1,4.096943E1,3.736608E2,2.0599344E2,1.2315911E3,6.572663E2,1.4662775E1,2.017868E1,4.401837E2,9.30681E2,3.5534573E1,1.8843424E1,6.671479E1,5.6427128E1,1.1328759E2,5.8079254E1,1.7898062E1,1.1088261E1,9.90065E0,5.030068E1,2.2617159E1,1.1675591E1,9.498678E0,3.147075E1,1.2111575E2,8.4877686E1,1.1924731E3,3.9117878E1,1.1098896E1,9.079784E0,3.9169296E2,4.8490726E1,2.8239792E2,6.4828314E2,1.827675E1,1.7257822E1,9.754525E0,9.0889E0,9.482854E0,5.7231934E1,2.0332487E1,3.609464E1,9.046236E1,2.282523E1,3.481359E1,2.3265663E1,2.184805E1,2.845263E1,1.3521432E1,9.095727E0,1.1125144E2,9.864318E0,2.4325155E1,6.055253E1,2.324981E1,1.5868069E1,3.660158E1,3.5509137E2,1.4295773E1,3.4194954E1,2.8883356E2,3.5944955E2,9.156963E0,1.1175524E1,1.7342648E1,1.8751991E1,7.362906E1,1.6833302E1,1.3749903E1,9.075328E0,2.5460012E1,9.3535795E0,1.2238123E1,1.1027541E1,1.0058086E1,1.1789963E1,9.420315E0,1.9032314E1,1.170213E1,1.2623025E1,1.096024E1,4.959229E1,2.5863873E1,1.0737709E1,2.9748123E2,5.7610146E1,1.0726419E1,2.3468534E1,1.3424635E2,1.5458722E2,3.4157016E2,1.7879393E1,9.03904E0,9.712953E0,5.491242E1,1.871664E1,1.0437439E1,1.50225725E1,9.697934E0,9.33438E0,3.09993E1,2.6648193E2,1.4021599E1,9.446936E0,5.0287952E1,8.395839E1,1.101754E2,4.4411823E1,3.4675106E1,2.023731E1,9.530265E0,9.186376E0],"tree_param":{"num_deleted":"0","num_feature":"9","num_nodes":"139","size_leaf_vector":"1"}},{"base_weights":[-9.858222E-1,-1.0315272E0,-7.5895E-1,-1.036515E0,-2.2003262E-1,-8.0957407E-1,-2.5119865E-1,-1.0525426E0,-9.841518E-1,-1.21882506E-1,-5.8184333E-2,-8.774518E-1,-4.8955065E-1,1.4509971E-1,-7.500497E-1,-1.0614573E-1,-9.716475E-1,-9.7102535E-1,-1.0537646E-1,-3.2421407E-1,5.6605753E-2,-8.9105487E-1,-5.342009E-1,-8.011502E-1,-2.7135977E-1,2.290783E-1,-2.0205656E-2,-5.551374E-1,-8.9955604E-1,-1.0101837E-1,-8.730451E-1,-9.450851E-1,-1.01827875E-1,-9.791742E-3,-4.8053515E-1,-8.387658E-1,-9.149506E-1,-7.3250675E-1,-1.5803118E-1,-1.03668705E-1,-5.205041E-1,-1.5189524E-1,-5.0356835E-1,-1.4842483E-2,3.063218E-1,-3.0006033E-1,-1.00911655E-1,-5.131309E-2,-9.997341E-2,-9.3954027E-1,-7.6906615E-1,-9.504241E-2,-7.640719E-1,-6.0899813E-2,-3.2360453E-2,-8.924267E-1,-4.1246933E-1,-1.0179174E0,-8.6903936E-1,-5.0797814E-1,-9.7364895E-2,-2.6866013E-2,-2.6498658E-3,-3.0634332E-1,-6.3211864E-1,-3.5930127E-1,5.9393775E-1,-6.9250506E-1,-2.666189E-1,6.1507035E-2,1.9558638E-1,-4.6144895E-2,-5.8456813E-3,-9.767916E-2,-5.8144767E-2,-5.402311E-1,-8.50925E-1,-9.2329904E-2,-4.957255E-2,-9.01631E-1,-6.73401E-2,-8.309447E-2,-2.7758613E-1,-9.540623E-1,-1.08511224E-1,-7.7203524E-1,-9.4557047E-1,-8.0945514E-2,-1.5895117E-2,-2.4575815E-3,-5.1936056E-2,-8.6748526E-2,-3.8879952E-1,-2.7744174E-1,-6.9155805E-2,7.490649E-2,3.0083716E-2,-4.730162E-2,-8.259545E-2,-4.0776532E-2,-2.9103039E-3,5.7541754E-2,5.5097606E-2,-7.694726E-2,-2.919662E-2,-6.7666894E-1,-9.231079E-2,-8.742959E-2,-1.0596671E-1,-6.4461636E-3,-4.3190637E-1,-1.0566073E-1,-8.501222E-1,-8.9112526E-1,-6.651172E-1,-9.5576644E-1,-7.117154E-2,-5.127381E-2,-2.2518871E-2,-3.8393992E-1,2.8841054E-2,-1.584349E-1,3.7111904E-2,-8.040949E-2,-5.1012676E-2,-6.0783237E-2,-2.0247301E-2,-4.234296E-2,-9.046928E-2,-7.166427E-2,-9.874289E-2,-5.4257352E-2,-9.591318E-2,-7.687081E-2,-9.699285E-2,-3.2151308E-2,-6.2170107E-2,1.0141265E-2,-4.9067987E-3,-2.6739528E-2,-2.7825495E-3],"categories":[],"categories_nodes":[],"categories_segments":[],"categories_sizes":[],"default_left":[0,0,1,1,0,0,0,0,0,0,0,1,0,0,0,0,0,1,0,0,0,0,0,0,0,0,0,0,0,0,0,0,0,0,0,0,0,0,0,0,0,0,0,0,0,0,0,0,0,0,0,0,0,0,0,0,0,0,0,0,0,0,0,0,0,0,0,0,0,0,0,0,0,0,0,0,0,0,0,0,0,0,0,0,0,0,0,0,0,0,0,0,0,0,0,0,0,0,0,0,0,0,0,0,0,0,0,0,0,0,0,0,0,0,1,0,0,0,0,0,0,0,0,0,0,0,0,0,0,0,0,0,0,0,0,0,0,0,0,0,0],"id":3,"left_children":[1,3,5,7,9,11,13,15,17,19,-1,21,23,25,27,-1,29,31,-1,33,-1,35,37,39,41,43,-1,45,47,-1,49,51,-1,-1,53,55,57,59,61,-1,63,65,67,-1,69,71,-1,-1,-1,73,75,-1,77,-1,-1,79,81,83,85,87,-1,-1,-1,89,91,93,95,97,99,-1,101,-1,-1,-1,-1,103,105,-1,-1,107,-1,-1,109,111,-1,113,115,-1,-1,-1,-1,-1,117,119,-1,-1,-1,-1,-1,-1,-1,121,-1,-1,-1,123,-1,-1,-1,-1,125,-1,127,129,131,133,-1,-1,-1,135,137,139,-1,-1,-1,-1,-1,-1,-1,-1,-1,-1,-1,-1,-1,-1,-1,-1,-1,-1,-1],"loss_changes":[1.0858301E2,3.529297E1,4.5352844E1,6.2851562E0,1.8779907E0,3.456909E1,3.21615E1,3.7749023E0,8.585205E-1,6.3684835E0,0E0,5.7246094E0,1.9104607E1,2.7048612E0,1.5970345E0,0E0,1.6762695E0,1.177124E0,0E0,1.1900764E0,0E0,8.267212E-1,3.8467197E0,7.1634827E0,4.6023693E0,2.2002943E0,0E0,3.6158934E0,1.0006523E0,0E0,6.364136E-1,3.7628174E-1,0E0,0E0,2.1474886E-1,9.060883E0,3.202942E0,1.3737469E0,2.7825198E-1,0E0,1.125412E0,1.7662512E1,2.3610725E0,0E0,1.9882183E0,8.733392E-1,0E0,0E0,0E0,9.7106934E-1,1.0796967E0,0E0,1.1566677E0,0E0,0E0,1.2918091E-1,2.4755278E0,8.380127E-2,3.760376E0,1.9716072E0,0E0,0E0,0E0,1.2384769E0,1.6863918E0,2.2255306E0,9.0771484E-1,5.176487E-1,8.883548E-1,0E0,2.267125E0,0E0,0E0,0E0,0E0,1.1634693E0,1.1481857E-1,0E0,0E0,5.750122E-1,0E0,0E0,1.2140224E0,6.153717E-1,0E0,2.8731842E0,1.15356445E-1,0E0,0E0,0E0,0E0,0E0,2.7359986E-1,2.3916087E0,0E0,0E0,0E0,0E0,0E0,0E0,0E0,2.4200687E0,0E0,0E0,0E0,3.4726143E-2,0E0,0E0,0E0,0E0,7.538357E-1,0E0,1.3782234E0,1.4066696E0,4.7893524E0,9.362793E-2,0E0,0E0,0E0,6.049094E-1,1.1669516E-1,2.9634655E-1,0E0,0E0,0E0,0E0,0E0,0E0,0E0,0E0,0E0,0E0,0E0,0E0,0E0,0E0,0E0,0E0,0E0,0E0,0E0],"parents":[2147483647,0,0,1,1,2,2,3,3,4,4,5,5,6,6,7,7,8,8,9,9,11,11,12,12,13,13,14,14,16,16,17,17,19,19,21,21,22,22,23,23,24,24,25,25,27,27,28,28,30,30,31,31,34,34,35,35,36,36,37,37,38,38,40,40,41,41,42,42,44,44,45,45,49,49,50,50,52,52,55,55,56,56,57,57,58,58,59,59,63,63,64,64,65,65,66,66,67,67,68,68,70,70,75,75,76,76,79,79,82,82,83,83,85,85,86,86,92,92,93,93,101,101,105,105,110,110,112,112,113,113,114,114,115,115,119,119,120,120,121,121],"right_children":[2,4,6,8,10,12,14,16,18,20,-1,22,24,26,28,-1,30,32,-1,34,-1,36,38,40,42,44,-1,46,48,-1,50,52,-1,-1,54,56,58,60,62,-1,64,66,68,-1,70,72,-1,-1,-1,74,76,-1,78,-1,-1,80,82,84,86,88,-1,-1,-1,90,92,94,96,98,100,-1,102,-1,-1,-1,-1,104,106,-1,-1,108,-1,-1,110,112,-1,114,116,-1,-1,-1,-1,-1,118,120,-1,-1,-1,-1,-1,-1,-1,122,-1,-1,-1,124,-1,-1,-1,-1,126,-1,128,130,132,134,-1,-1,-1,136,138,140,-1,-1,-1,-1,-1,-1,-1,-1,-1,-1,-1,-1,-1,-1,-1,-1,-1,-1,-1],"split_conditions":[3.2E2,3.269E0,4E0,4E0,1.5160429E9,2.53E0,8E0,7.19E-1,8E0,1.5160365E9,-5.8184333E-2,4.8E2,2.048E3,3E-2,7.68E2,-1.0614573E-1,2.5E2,3E1,-1.0537646E-1,1.5160054E9,5.6605753E-2,1.7094018E-1,1E0,4.29E0,3.269E0,1.2E1,-2.0205656E-2,1.516021E9,1.3E1,-1.0101837E-1,1.5160348E9,1.5160426E9,-1.01827875E-1,-9.791742E-3,1.5160244E9,1.7E-1,5.1E-1,5.71E-1,1.7E1,-1.03668705E-1,2.1E1,2.86E0,1.5160271E9,-1.4842483E-2,1.5160214E9,1.5160054E9,-1.00911655E-1,-5.131309E-2,-9.997341E-2,2.4691358E0,1.5160411E9,-9.504241E-2,8E-2,-6.0899813E-2,-3.2360453E-2,1.4E-1,9E0,3.521111E-1,1.2452108E0,1.5160338E9,-9.7364895E-2,-2.6866013E-2,-2.6498658E-3,1.2E1,4.1E1,1.5160457E9,1.5160297E9,1.5160022E9,3.9E1,6.1507035E-2,1.5160404E9,-4.6144895E-2,-5.8456813E-3,-9.767916E-2,-5.8144767E-2,1.5160378E9,2.3E1,-9.2329904E-2,-4.957255E-2,9.589E-2,-6.73401E-2,-8.309447E-2,2.3E1,1.5160271E9,-1.08511224E-1,7.6E-1,2.3E1,-8.0945514E-2,-1.5895117E-2,-2.4575815E-3,-5.1936056E-2,-8.6748526E-2,1.5160244E9,4.6E1,-6.9155805E-2,7.490649E-2,3.0083716E-2,-4.730162E-2,-8.259545E-2,-4.0776532E-2,-2.9103039E-3,3.6E1,5.5097606E-2,-7.694726E-2,-2.919662E-2,9.2E-1,-9.231079E-2,-8.742959E-2,-1.0596671E-1,-6.4461636E-3,1.5160383E9,-1.0566073E-1,1.5160317E9,5.48E-1,2.1E1,1.5159946E9,-7.117154E-2,-5.127381E-2,-2.2518871E-2,1.5160385E9,1.5160244E9,1.8E1,3.7111904E-2,-8.040949E-2,-5.1012676E-2,-6.0783237E-2,-2.0247301E-2,-4.234296E-2,-9.046928E-2,-7.166427E-2,-9.874289E-2,-5.4257352E-2,-9.591318E-2,-7.687081E-2,-9.699285E-2,-3.2151308E-2,-6.2170107E-2,1.0141265E-2,-4.9067987E-3,-2.6739528E-2,-2.7825495E-3],"split_indices":[3,1,5,5,2,1,5,1,5,2,0,4,3,1,3,0,3,0,0,2,0,1,1,1,1,7,0,2,8,0,2,2,0,0,2,1,1,1,7,0,8,1,2,0,2,2,0,0,0,1,2,0,1,0,0,1,7,1,1,2,0,0,0,7,8,2,2,2,8,0,2,0,0,0,0,2,8,0,0,1,0,0,8,2,0,1,7,0,0,0,0,0,2,8,0,0,0,0,0,0,0,8,0,0,0,1,0,0,0,0,2,0,2,1,0,2,0,0,0,2,2,8,0,0,0,0,0,0,0,0,0,0,0,0,0,0,0,0,0,0,0],"split_type":[0,0,0,0,0,0,0,0,0,0,0,0,0,0,0,0,0,0,0,0,0,0,0,0,0,0,0,0,0,0,0,0,0,0,0,0,0,0,0,0,0,0,0,0,0,0,0,0,0,0,0,0,0,0,0,0,0,0,0,0,0,0,0,0,0,0,0,0,0,0,0,0,0,0,0,0,0,0,0,0,0,0,0,0,0,0,0,0,0,0,0,0,0,0,0,0,0,0,0,0,0,0,0,0,0,0,0,0,0,0,0,0,0,0,0,0,0,0,0,0,0,0,0,0,0,0,0,0,0,0,0,0,0,0,0,0,0,0,0,0,0],"sum_hessian":[1.0546172E4,8.774866E3,1.7713058E3,8.720985E3,5.388062E1,1.610173E3,1.6113283E2,6.662575E3,2.0584102E3,4.343474E1,1.044588E1,1.3269764E3,2.8319653E2,9.019169E1,7.094115E1,5.990316E3,6.722589E2,1.7444253E3,3.13985E2,3.3971905E1,9.462834E0,1.2748577E3,5.211872E1,1.1553237E2,1.6766417E2,7.289758E1,1.7294106E1,3.284025E1,3.81009E1,4.76706E2,1.9555287E2,1.1397485E3,6.046767E2,1.4543924E1,1.942798E1,4.111886E2,8.636691E2,3.350734E1,1.8611382E1,6.1349693E1,5.418268E1,1.11800316E2,5.586385E1,1.2225891E1,6.067169E1,2.2089682E1,1.07505665E1,9.1043E0,2.8996597E1,1.14374054E2,8.1178825E1,1.1029662E3,3.6782413E1,9.098933E0,1.0329047E1,3.6424506E2,4.694353E1,2.598108E2,6.0385834E2,1.8960073E1,1.4547266E1,9.542701E0,9.068681E0,1.9846598E1,3.433608E1,8.788026E1,2.3920053E1,3.0011196E1,2.5852654E1,1.4813843E1,4.585785E1,1.2697764E1,9.391917E0,1.0203217E2,1.2341884E1,2.3390537E1,5.7788284E1,2.1552961E1,1.5229452E1,3.465646E2,1.7680473E1,1.0184773E1,3.675876E1,1.4100877E2,1.1880201E2,2.711988E2,3.3265955E2,9.465199E0,9.494874E0,9.0246525E0,1.0821945E1,1.614934E1,1.8186739E1,7.198101E1,1.5899251E1,1.4624302E1,9.295752E0,1.306586E1,1.6945337E1,1.5766468E1,1.0086186E1,3.386537E1,1.19924755E1,1.1069678E1,1.2320859E1,1.9965101E1,3.7823185E1,3.0102866E2,4.5535927E1,1.6033436E1,2.072532E1,6.6367004E1,7.464177E1,1.2482673E2,1.4637207E2,3.1580368E2,1.685585E1,9.133803E0,9.052937E0,5.3221657E1,1.8759354E1,2.0346472E1,1.3518902E1,9.1420765E0,1.0823026E1,1.079704E1,9.928281E0,9.456876E0,6.51849E1,4.7396114E1,7.743062E1,1.0532046E2,4.1051613E1,2.611717E1,2.8968652E2,4.4016804E1,9.204854E0,9.556177E0,9.203176E0,1.0521588E1,9.8248825E0],"tree_param":{"num_deleted":"0","num_feature":"9","num_nodes":"141","size_leaf_vector":"1"}},{"base_weights":[-9.664886E-1,-1.0152987E0,-7.30008E-1,-1.0206411E0,-2.0400338E-1,-7.8183514E-1,-2.3325865E-1,-1.0379446E0,-9.6445465E-1,-1.12428606E-1,-5.5281796E-2,-8.5205495E-1,-4.6139687E-1,1.297806E-1,-7.218308E-1,-1.0475707E-1,-9.513409E-1,-9.5044625E-1,-1.0392938E-1,-3.021229E-1,4.956732E-2,-8.662245E-1,-5.0596595E-1,-7.7368385E-1,-2.5170183E-1,-1.8844772E-2,2.0406155E-1,-5.2668047E-1,-8.7599105E-1,-9.923784E-1,-8.477898E-1,-9.228743E-1,-1.00100376E-1,-7.5216177E-3,-4.4281697E-1,-8.11658E-1,-8.9132845E-1,-7.044844E-1,-1.454432E-1,-1.02101676E-1,-4.9211025E-1,-1.397265E-1,-4.7483808E-1,1.1931546E-1,7.371675E-2,-2.7867526E-1,-9.927697E-2,-5.0868638E-2,-9.801439E-2,-1.0292281E0,-9.2866075E-1,-9.1731894E-1,-7.408636E-1,-9.285019E-1,-7.356469E-1,-5.7985403E-2,-2.5370283E-2,-8.674373E-1,-3.8699746E-1,-1.0008429E0,-8.431143E-1,-4.8068482E-2,-9.538315E-2,-2.4917647E-2,-2.4158617E-3,-2.850253E-1,-6.027913E-1,-3.3470967E-1,5.1747936E-1,-6.528206E-1,-2.3312564E-1,-2.0439586E-1,2.8091478E-1,-4.3360528E-2,-5.340276E-3,-7.6763436E-2,-1.0412802E-1,-4.7972452E-2,-9.6006143E-1,-9.567261E-1,-5.5208772E-2,-5.1158935E-1,-8.250797E-1,-1.0120932E-1,-9.174419E-1,-9.008662E-2,-4.6696883E-2,-7.048518E-1,-8.821685E-1,-8.055561E-2,-2.5760463E-1,-9.3303597E-1,-1.0730276E-1,-7.4275875E-1,-9.2351544E-1,-2.2403093E-3,-4.9078804E-2,-8.427178E-2,-3.6422532E-2,-2.5660607E-1,-6.619495E-2,2.1507932E-2,6.674629E-2,-4.450081E-2,-7.7076524E-2,-7.345192E-3,-4.1302584E-2,8.849223E-3,-4.645076E-2,5.1318556E-1,6.291373E-2,-7.595837E-1,-1.00511946E-1,-7.234369E-2,-9.928017E-2,-7.4209936E-2,-2.7088547E-2,-6.4812355E-2,-9.000863E-2,-5.634558E-2,-9.239297E-2,-7.9590455E-2,-4.391005E-2,-8.498186E-1,-1.0326258E-1,-2.9543273E-3,-3.8993368E-1,-1.04236595E-1,-8.241321E-1,-8.663182E-1,-6.33932E-1,-9.5213664E-1,-8.158062E-1,-3.579815E-1,2.6147759E-2,3.5655975E-2,6.425089E-2,3.6418363E-2,-3.640226E-2,-9.564428E-2,-5.5981167E-2,-1.0198647E-1,-8.260057E-2,-5.4999467E-2,-1.2612945E-2,-4.407854E-2,-8.89918E-2,-6.861397E-2,-9.681707E-2,-5.1134814E-2,-9.382786E-2,-9.653589E-2,-6.874559E-2,-4.762599E-2,-9.388634E-2,-2.6299125E-2,-5.0235998E-2,9.157069E-3,-4.4803373E-3],"categories":[],"categories_nodes":[],"categories_segments":[],"categories_sizes":[],"default_left":[0,0,1,1,0,0,0,0,0,0,0,1,0,0,0,0,0,1,0,0,0,0,0,0,0,0,0,0,0,0,0,0,0,0,0,0,0,0,0,0,0,0,0,0,0,0,0,0,0,0,0,0,0,0,0,0,0,0,0,0,0,0,0,0,0,0,0,0,0,0,0,0,0,0,0,0,0,0,0,0,0,0,0,0,0,0,0,0,0,0,0,0,0,0,1,0,0,0,0,0,0,0,0,0,0,0,0,0,0,0,0,0,0,0,0,0,0,0,0,0,0,0,0,0,0,0,0,0,0,0,1,0,0,0,0,0,0,0,0,0,0,0,0,0,0,0,0,0,0,0,0,0,0,0,0,0,0,0,0],"id":4,"left_children":[1,3,5,7,9,11,13,15,17,19,-1,21,23,25,27,-1,29,31,-1,33,-1,35,37,39,41,-1,43,45,47,49,51,53,-1,-1,55,57,59,61,63,-1,65,67,69,71,-1,73,-1,-1,-1,75,77,79,81,83,85,-1,-1,87,89,91,93,-1,-1,-1,-1,95,97,99,101,103,105,107,109,-1,-1,-1,-1,-1,111,113,-1,115,117,-1,119,-1,-1,121,123,-1,125,127,-1,129,131,-1,-1,-1,-1,133,-1,-1,-1,-1,-1,-1,-1,-1,-1,135,137,139,-1,-1,-1,-1,-1,-1,-1,-1,-1,-1,-1,141,-1,-1,143,-1,145,147,149,151,153,155,157,-1,-1,-1,-1,-1,-1,-1,-1,-1,-1,-1,-1,-1,-1,-1,-1,-1,-1,-1,-1,-1,-1,-1,-1],"loss_changes":[1.1156738E2,3.473828E1,4.2766357E1,6.786133E0,1.6625893E0,3.3588135E1,2.8301414E1,4.097168E0,1.0041504E0,5.2279067E0,0E0,5.6307373E0,1.7724327E1,2.2151895E0,1.5827942E0,0E0,1.8024292E0,1.3236084E0,0E0,1.0577586E0,0E0,9.031372E-1,3.5533533E0,7.1195755E0,4.0610714E0,0E0,3.3066957E0,3.4795008E0,8.9593697E-1,7.662964E-2,6.842041E-1,4.2956543E-1,0E0,0E0,3.9430046E-1,8.79245E0,3.3967285E0,1.3652325E0,2.3804295E-1,0E0,1.0454979E0,1.4449787E1,2.2045002E0,3.5113056E0,0E0,7.656045E-1,0E0,0E0,0E0,4.989624E-2,1.954956E0,1.0112762E0,1.0739479E0,1.5808105E-2,1.1609707E0,0E0,0E0,1.9207764E-1,2.3133454E0,1.7430115E-1,3.8645935E0,0E0,0E0,0E0,0E0,1.0911521E0,1.6228228E0,2.0416393E0,1.0304012E0,4.1667557E-1,6.8166435E-1,1.7601156E0,2.2190244E0,0E0,0E0,0E0,0E0,0E0,6.7414856E-1,8.281708E-2,0E0,1.0998931E0,1.4710236E-1,0E0,1.5755615E0,0E0,0E0,4.5402145E-1,6.1968994E-1,0E0,1.1058564E0,7.0658875E-1,0E0,2.892685E0,1.7584229E-1,0E0,0E0,0E0,0E0,2.0584927E0,0E0,0E0,0E0,0E0,0E0,0E0,0E0,0E0,0E0,2.040968E-1,3.2291586E0,7.7412033E-1,0E0,0E0,0E0,0E0,0E0,0E0,0E0,0E0,0E0,0E0,0E0,2.0561218E-1,0E0,0E0,9.164915E-1,0E0,1.3895111E0,1.4854355E0,4.7367897E0,1.6978455E-1,2.555294E0,5.9049225E-1,9.600218E-2,0E0,0E0,0E0,0E0,0E0,0E0,0E0,0E0,0E0,0E0,0E0,0E0,0E0,0E0,0E0,0E0,0E0,0E0,0E0,0E0,0E0,0E0,0E0,0E0],"parents":[2147483647,0,0,1,1,2,2,3,3,4,4,5,5,6,6,7,7,8,8,9,9,11,11,12,12,13,13,14,14,16,16,17,17,19,19,21,21,22,22,23,23,24,24,26,26,27,27,28,28,29,29,30,30,31,31,34,34,35,35,36,36,37,37,38,38,40,40,41,41,42,42,43,43,45,45,49,49,50,50,51,51,52,52,53,53,54,54,57,57,58,58,59,59,60,60,65,65,66,66,67,67,68,68,69,69,70,70,71,71,72,72,78,78,79,79,81,81,82,82,84,84,87,87,88,88,90,90,91,91,93,93,94,94,99,99,109,109,110,110,111,111,123,123,126,126,128,128,129,129,130,130,131,131,132,132,133,133,134,134],"right_children":[2,4,6,8,10,12,14,16,18,20,-1,22,24,26,28,-1,30,32,-1,34,-1,36,38,40,42,-1,44,46,48,50,52,54,-1,-1,56,58,60,62,64,-1,66,68,70,72,-1,74,-1,-1,-1,76,78,80,82,84,86,-1,-1,88,90,92,94,-1,-1,-1,-1,96,98,100,102,104,106,108,110,-1,-1,-1,-1,-1,112,114,-1,116,118,-1,120,-1,-1,122,124,-1,126,128,-1,130,132,-1,-1,-1,-1,134,-1,-1,-1,-1,-1,-1,-1,-1,-1,136,138,140,-1,-1,-1,-1,-1,-1,-1,-1,-1,-1,-1,142,-1,-1,144,-1,146,148,150,152,154,156,158,-1,-1,-1,-1,-1,-1,-1,-1,-1,-1,-1,-1,-1,-1,-1,-1,-1,-1,-1,-1,-1,-1,-1,-1],"split_conditions":[3.2E2,3.269E0,4E0,4E0,1.5160429E9,2.53E0,8E0,7.19E-1,8E0,1.5160365E9,-5.5281796E-2,4.8E2,2.048E3,1.3E1,7.68E2,-1.0475707E-1,2.5E2,3E1,-1.0392938E-1,1.5160049E9,4.956732E-2,1.7094018E-1,1E0,4.29E0,3.269E0,-1.8844772E-2,1.5160421E9,1.516021E9,1.4E1,1.5160383E9,1.5160348E9,1.5160426E9,-1.00100376E-1,-7.5216177E-3,3.2E1,1.7E-1,5.1E-1,5.71E-1,1.7E1,-1.02101676E-1,2.1E1,2.86E0,1.5160288E9,2.1E1,7.371675E-2,1.5160054E9,-9.927697E-2,-5.0868638E-2,-9.801439E-2,3E0,1.5160398E9,2.4691358E0,1.5160411E9,1.5159963E9,8E-2,-5.7985403E-2,-2.5370283E-2,7.68E2,9E0,3.521111E-1,1.2452108E0,-4.8068482E-2,-9.538315E-2,-2.4917647E-2,-2.4158617E-3,1.2E1,4.1E1,1.5160457E9,1.5160096E9,1.5160022E9,2E1,9E0,1.5160314E9,-4.3360528E-2,-5.340276E-3,-7.6763436E-2,-1.0412802E-1,-4.7972452E-2,2.7E1,1.5159963E9,-5.5208772E-2,1.5160378E9,2.3E1,-1.0120932E-1,1.5159973E9,-9.008662E-2,-4.6696883E-2,9.589E-2,9.589E-2,-8.055561E-2,1.5160301E9,1.5160271E9,-1.0730276E-1,7.6E-1,2.4E1,-2.2403093E-3,-4.9078804E-2,-8.427178E-2,-3.6422532E-2,4.6E1,-6.619495E-2,2.1507932E-2,6.674629E-2,-4.450081E-2,-7.7076524E-2,-7.345192E-3,-4.1302584E-2,8.849223E-3,-4.645076E-2,4.2E1,4.4E1,2.1E1,-1.00511946E-1,-7.234369E-2,-9.928017E-2,-7.4209936E-2,-2.7088547E-2,-6.4812355E-2,-9.000863E-2,-5.634558E-2,-9.239297E-2,-7.9590455E-2,-4.391005E-2,1.5159954E9,-1.0326258E-1,-2.9543273E-3,3.6E1,-1.04236595E-1,1.5160329E9,5.48E-1,2.1E1,1.5160541E9,7.68E2,3E1,5.3E1,3.5655975E-2,6.425089E-2,3.6418363E-2,-3.640226E-2,-9.564428E-2,-5.5981167E-2,-1.0198647E-1,-8.260057E-2,-5.4999467E-2,-1.2612945E-2,-4.407854E-2,-8.89918E-2,-6.861397E-2,-9.681707E-2,-5.1134814E-2,-9.382786E-2,-9.653589E-2,-6.874559E-2,-4.762599E-2,-9.388634E-2,-2.6299125E-2,-5.0235998E-2,9.157069E-3,-4.4803373E-3],"split_indices":[3,1,5,5,2,1,5,1,5,2,0,4,3,7,3,0,3,0,0,2,0,1,1,1,1,0,2,2,8,2,2,2,0,0,8,1,1,1,7,0,8,1,2,8,0,2,0,0,0,7,2,1,2,2,1,0,0,3,7,1,1,0,0,0,0,7,8,2,2,2,7,8,2,0,0,0,0,0,0,2,0,2,8,0,2,0,0,1,1,0,2,2,0,1,0,0,0,0,0,8,0,0,0,0,0,0,0,0,0,8,8,7,0,0,0,0,0,0,0,0,0,0,0,2,0,0,8,0,2,1,0,2,3,8,8,0,0,0,0,0,0,0,0,0,0,0,0,0,0,0,0,0,0,0,0,0,0,0,0],"split_type":[0,0,0,0,0,0,0,0,0,0,0,0,0,0,0,0,0,0,0,0,0,0,0,0,0,0,0,0,0,0,0,0,0,0,0,0,0,0,0,0,0,0,0,0,0,0,0,0,0,0,0,0,0,0,0,0,0,0,0,0,0,0,0,0,0,0,0,0,0,0,0,0,0,0,0,0,0,0,0,0,0,0,0,0,0,0,0,0,0,0,0,0,0,0,0,0,0,0,0,0,0,0,0,0,0,0,0,0,0,0,0,0,0,0,0,0,0,0,0,0,0,0,0,0,0,0,0,0,0,0,0,0,0,0,0,0,0,0,0,0,0,0,0,0,0,0,0,0,0,0,0,0,0,0,0,0,0,0,0],"sum_hessian":[9.728865E3,8.061632E3,1.6672332E3,8.0086367E3,5.2995007E1,1.5092007E3,1.5803252E2,6.1096216E3,1.8990151E3,4.3022552E1,9.972456E0,1.2365646E3,2.7263605E2,9.108507E1,6.694746E1,5.488473E3,6.211486E2,1.6111417E3,2.878734E2,3.3176487E1,9.846066E0,1.1864846E3,5.007996E1,1.0844519E2,1.6419086E2,1.6946651E1,7.413841E1,3.149484E1,3.5452618E1,4.3870557E2,1.8244308E2,1.0550275E3,5.561142E2,1.3285187E1,1.9891298E1,3.8436026E2,8.021244E2,3.1681034E1,1.8398924E1,5.6334843E1,5.2110344E1,1.1041037E2,5.3780487E1,6.502536E1,9.113054E0,2.159962E1,9.89522E0,9.131956E0,2.6320663E1,2.6835526E2,1.703503E2,1.05961975E2,7.648111E1,1.02039746E3,3.4630028E1,1.0335653E1,9.555645E0,3.3881424E2,4.5546E1,2.3915172E2,5.629727E2,1.8238752E1,1.3442282E1,9.348654E0,9.050271E0,1.9395828E1,3.2714516E1,8.55266E1,2.4883762E1,2.999394E1,2.3786547E1,2.156404E1,4.346132E1,1.2249966E1,9.349654E0,1.46683655E1,2.5368689E2,1.2200272E1,1.5815002E2,9.418071E1,1.1781266E1,2.2446442E1,5.4034668E1,1.0865747E2,9.1174E2,1.9986622E1,1.4643406E1,3.2206264E1,3.0660797E2,9.5212145E0,3.6024788E1,1.3049565E2,1.0865606E2,2.5496588E2,3.0800684E2,9.0077715E0,1.0388057E1,1.5048133E1,1.7666382E1,7.048728E1,1.5039326E1,9.056956E0,1.5826807E1,1.2587838E1,1.7406103E1,1.3347775E1,1.0438771E1,1.0453311E1,1.1110728E1,2.0386417E1,2.3074903E1,3.2299038E1,1.2585098E2,1.5433136E1,7.8747574E1,1.0401965E1,1.20444765E1,1.8955528E1,3.507914E1,1.7990698E1,8.937493E2,2.2501719E1,9.704544E0,2.578219E2,4.878607E1,1.3676828E1,2.234796E1,6.0843098E1,6.965256E1,1.16141205E2,1.3882468E2,2.3714996E2,7.085686E1,5.1689163E1,1.8798119E1,1.0919153E1,9.467264E0,1.3614641E1,9.460261E0,1.4360384E1,1.7938656E1,2.6531853E1,2.3129005E2,1.3233679E1,9.114281E0,1.1330123E1,5.8322433E1,4.473713E1,7.1404076E1,1.0087476E2,3.794991E1,2.2334537E2,1.3804599E1,2.0144157E1,5.07127E1,3.2878864E1,1.8810299E1,9.628871E0,9.169248E0],"tree_param":{"num_deleted":"0","num_feature":"9","num_nodes":"159","size_leaf_vector":"1"}},{"base_weights":[-9.474966E-1,-9.996363E-1,-7.01335E-1,-1.005362E0,-1.8895593E-1,-7.542453E-1,-2.1643205E-1,-1.0240653E0,-9.4503886E-1,-1.0359896E-1,-5.2448153E-2,-8.267464E-1,-4.3416783E-1,1.1648244E-1,-6.939269E-1,-1.0344668E-1,-9.314158E-1,-9.300925E-1,-1.0255443E-1,-2.8104758E-1,4.3616977E-2,-8.415044E-1,-4.778909E-1,-7.4623275E-1,-2.332456E-1,1.8902054E-1,-1.9275272E-2,-4.9908537E-1,-8.5256726E-1,-9.75153E-1,-8.226219E-1,-9.0080935E-1,-9.841819E-2,-4.927159E-2,-1.141045E-1,-7.847345E-1,-8.678135E-1,-6.758655E-1,-1.3376394E-1,-1.0059606E-1,-4.6415934E-1,-1.2842242E-1,-4.47151E-1,2.541296E-1,-1.0218087E-2,-2.5850242E-1,-9.7700715E-2,-5.769686E-2,-9.873959E-2,-1.0145521E0,-9.076622E-1,-8.954183E-1,-7.125177E-1,-9.0673864E-1,-7.074318E-1,1.0189814E-2,-3.2853622E-2,-8.4261477E-1,-3.625062E-1,-9.842619E-1,-8.1725305E-1,-8.958498E-2,-4.1658588E-2,-2.3084406E-2,-2.2021856E-3,-3.269422E-1,-6.388587E-1,-3.1125885E-1,4.530317E-1,-6.343597E-1,-2.2676225E-1,1.7969948E-1,6.178664E-2,-4.0680543E-2,-4.87698E-3,-7.411634E-2,-1.0274853E-1,-4.5266505E-2,-9.4085157E-1,-9.370929E-1,-5.234039E-2,-4.8378035E-1,-7.989145E-1,-9.9580176E-2,-8.950442E-1,-8.786062E-2,-4.3914333E-2,-8.527721E-1,-6.096355E-2,-7.0998624E-2,-2.1458404E-1,-9.12203E-1,-1.0619694E-1,-7.136004E-1,-9.0164703E-1,1.4124297E-2,-6.2185653E-2,-9.290512E-2,-2.3416476E-2,-2.3690495E-1,-6.3270666E-2,6.655388E-2,2.6564691E-2,-4.1798774E-2,-7.73587E-2,-3.6619905E-2,3.7175756E-5,-2.0818265E-2,4.272931E-1,-7.328259E-1,-9.887238E-2,-6.957211E-2,-9.753543E-2,-7.1497954E-2,-2.5099773E-2,-6.1843485E-2,-8.771899E-2,-5.3446144E-2,-9.0187095E-2,-8.22559E-1,-1.0324218E-1,1.0099261E-2,-3.6470234E-1,-1.0288956E-1,-7.981639E-1,-8.41551E-1,-6.031488E-1,-9.2667854E-1,-7.645077E-2,-3.2618552E-1,4.3243775E-3,1.2508701E-2,-1.4134586E-2,8.31984E-2,9.985917E-3,-9.3801595E-2,-5.3096004E-2,-9.747379E-2,-8.0133356E-2,-5.20533E-2,-1.1583454E-2,-4.1462865E-2,-8.666306E-2,-6.558683E-2,-9.492181E-2,-4.8093043E-2,-9.176418E-2,-9.389221E-2,-6.717818E-2,-4.148505E-2,-1.7436016E-2],"categories":[],"categories_nodes":[],"categories_segments":[],"categories_sizes":[],"default_left":[0,0,1,1,0,0,0,0,0,0,0,1,0,0,0,0,0,1,0,0,0,0,0,0,0,0,0,0,0,0,0,0,0,0,0,0,0,0,0,0,0,0,0,0,0,0,0,0,0,0,0,0,0,0,0,0,0,0,0,0,0,0,0,0,0,0,0,0,0,0,0,0,0,0,0,0,0,0,0,0,0,0,0,0,0,0,0,0,0,0,0,0,0,0,0,0,0,0,0,0,0,0,0,0,0,0,0,0,0,0,0,0,0,0,0,0,0,0,0,0,0,0,0,0,0,0,1,0,0,0,0,0,0,0,0,0,0,0,0,0,0,0,0,0,0,0,0,0,0,0,0],"id":5,"left_children":[1,3,5,7,9,11,13,15,17,19,-1,21,23,25,27,-1,29,31,-1,33,-1,35,37,39,41,43,-1,45,47,49,51,53,-1,-1,55,57,59,61,63,-1,65,67,69,71,-1,73,-1,-1,-1,75,77,79,81,83,85,-1,-1,87,89,91,93,-1,-1,-1,-1,95,97,99,101,103,105,107,-1,-1,-1,-1,-1,-1,109,111,-1,113,115,-1,117,-1,-1,119,-1,-1,121,123,-1,125,127,-1,-1,-1,-1,129,-1,-1,-1,-1,-1,-1,-1,131,133,135,-1,-1,-1,-1,-1,-1,-1,-1,-1,137,-1,-1,139,-1,141,143,145,147,-1,149,-1,-1,-1,-1,-1,-1,-1,-1,-1,-1,-1,-1,-1,-1,-1,-1,-1,-1,-1,-1,-1],"loss_changes":[1.1452051E2,3.4186035E1,4.018097E1,7.3291016E0,1.4684556E0,3.2532898E1,2.4895939E1,4.4345703E0,1.1558838E0,4.301893E0,0E0,5.541809E0,1.6370628E1,2.1188073E0,1.5610981E0,0E0,1.935791E0,1.4726562E0,0E0,1.1256618E0,0E0,9.713135E-1,3.2596426E0,7.071354E0,3.5743685E0,1.4612186E0,0E0,3.34129E0,6.942425E-1,1.5612793E-1,7.357025E-1,4.8010254E-1,0E0,0E0,9.598392E-1,8.511993E0,3.5910034E0,1.3931427E0,2.0324564E-1,0E0,1.018054E0,1.1846511E1,2.0373554E0,1.5716529E0,0E0,6.691222E-1,0E0,0E0,0E0,1.1264038E-1,1.9718475E0,1.0486755E0,1.0583076E0,9.3444824E-2,1.1595097E0,0E0,0E0,2.2920227E-1,2.173582E0,2.6939392E-1,3.9615784E0,0E0,0E0,0E0,0E0,4.3287125E0,2.3035936E0,1.8663645E0,8.8829374E-1,5.210123E-1,8.1844187E-1,2.6404738E0,0E0,0E0,0E0,0E0,0E0,0E0,7.3994446E-1,1.3423157E-1,0E0,1.0357137E0,1.8549347E-1,0E0,1.5997314E0,0E0,0E0,7.8352356E-1,0E0,0E0,1.6083691E0,7.9989624E-1,0E0,2.8990402E0,2.746277E-1,0E0,0E0,0E0,0E0,1.767689E0,0E0,0E0,0E0,0E0,0E0,0E0,0E0,5.4948217E-1,3.066029E0,8.015175E-1,0E0,0E0,0E0,0E0,0E0,0E0,0E0,0E0,0E0,6.65741E-2,0E0,0E0,8.199024E-1,0E0,1.3756104E0,1.5595474E0,4.667042E0,1.103363E-1,0E0,6.44948E-1,0E0,0E0,0E0,0E0,0E0,0E0,0E0,0E0,0E0,0E0,0E0,0E0,0E0,0E0,0E0,0E0,0E0,0E0,0E0,0E0,0E0],"parents":[2147483647,0,0,1,1,2,2,3,3,4,4,5,5,6,6,7,7,8,8,9,9,11,11,12,12,13,13,14,14,16,16,17,17,19,19,21,21,22,22,23,23,24,24,25,25,27,27,28,28,29,29,30,30,31,31,34,34,35,35,36,36,37,37,38,38,40,40,41,41,42,42,43,43,45,45,49,49,50,50,51,51,52,52,53,53,54,54,57,57,58,58,59,59,60,60,65,65,66,66,67,67,68,68,69,69,70,70,71,71,78,78,79,79,81,81,82,82,84,84,87,87,90,90,91,91,93,93,94,94,99,99,107,107,108,108,109,109,119,119,122,122,124,124,125,125,126,126,127,127,129,129],"right_children":[2,4,6,8,10,12,14,16,18,20,-1,22,24,26,28,-1,30,32,-1,34,-1,36,38,40,42,44,-1,46,48,50,52,54,-1,-1,56,58,60,62,64,-1,66,68,70,72,-1,74,-1,-1,-1,76,78,80,82,84,86,-1,-1,88,90,92,94,-1,-1,-1,-1,96,98,100,102,104,106,108,-1,-1,-1,-1,-1,-1,110,112,-1,114,116,-1,118,-1,-1,120,-1,-1,122,124,-1,126,128,-1,-1,-1,-1,130,-1,-1,-1,-1,-1,-1,-1,132,134,136,-1,-1,-1,-1,-1,-1,-1,-1,-1,138,-1,-1,140,-1,142,144,146,148,-1,150,-1,-1,-1,-1,-1,-1,-1,-1,-1,-1,-1,-1,-1,-1,-1,-1,-1,-1,-1,-1,-1],"split_conditions":[3.2E2,3.269E0,4E0,4E0,1.5160429E9,2.53E0,8E0,7.19E-1,8E0,1.5160365E9,-5.2448153E-2,4.8E2,2.048E3,3E-2,7.68E2,-1.0344668E-1,2.5E2,3E1,-1.0255443E-1,4.29E0,4.3616977E-2,1.7094018E-1,1E0,4.29E0,3.269E0,1.5160442E9,-1.9275272E-2,1.516021E9,2.2E1,1.5160383E9,1.5160348E9,1.5160426E9,-9.841819E-2,-4.927159E-2,1.5160236E9,1.7E-1,5.1E-1,1.516034E9,1.7E1,-1.0059606E-1,1.5160288E9,2.86E0,1.5160271E9,1.5160407E9,-1.0218087E-2,1.5160054E9,-9.7700715E-2,-5.769686E-2,-9.873959E-2,3E0,1.5160398E9,2.4691358E0,1.5160411E9,1.5159963E9,8E-2,1.0189814E-2,-3.2853622E-2,1.4E-1,1.1E1,3.521111E-1,1.2452108E0,-8.958498E-2,-4.1658588E-2,-2.3084406E-2,-2.2021856E-3,2.1E1,3.5E1,1.5160457E9,2.1E1,1.5160022E9,3.9E1,3.6E1,6.178664E-2,-4.0680543E-2,-4.87698E-3,-7.411634E-2,-1.0274853E-1,-4.5266505E-2,2.7E1,1.5159963E9,-5.234039E-2,1.5160378E9,2.3E1,-9.9580176E-2,1.5159973E9,-8.786062E-2,-4.3914333E-2,9.589E-2,-6.096355E-2,-7.0998624E-2,1.5160301E9,1.5160271E9,-1.0619694E-1,7.6E-1,5E1,1.4124297E-2,-6.2185653E-2,-9.290512E-2,-2.3416476E-2,4.7E1,-6.3270666E-2,6.655388E-2,2.6564691E-2,-4.1798774E-2,-7.73587E-2,-3.6619905E-2,3.7175756E-5,1.5160253E9,4.6E1,2.1E1,-9.887238E-2,-6.957211E-2,-9.753543E-2,-7.1497954E-2,-2.5099773E-2,-6.1843485E-2,-8.771899E-2,-5.3446144E-2,-9.0187095E-2,1.5159954E9,-1.0324218E-1,1.0099261E-2,3.6E1,-1.0288956E-1,1.5160329E9,5.48E-1,2.1E1,2.3E1,-7.645077E-2,1.5160311E9,4.3243775E-3,1.2508701E-2,-1.4134586E-2,8.31984E-2,9.985917E-3,-9.3801595E-2,-5.3096004E-2,-9.747379E-2,-8.0133356E-2,-5.20533E-2,-1.1583454E-2,-4.1462865E-2,-8.666306E-2,-6.558683E-2,-9.492181E-2,-4.8093043E-2,-9.176418E-2,-9.389221E-2,-6.717818E-2,-4.148505E-2,-1.7436016E-2],"split_indices":[3,1,5,5,2,1,5,1,5,2,0,4,3,1,3,0,3,0,0,1,0,1,1,1,1,2,0,2,8,2,2,2,0,0,2,1,1,2,7,0,2,1,2,2,0,2,0,0,0,7,2,1,2,2,1,0,0,1,7,1,1,0,0,0,0,8,8,2,8,2,8,8,0,0,0,0,0,0,0,2,0,2,8,0,2,0,0,1,0,0,2,2,0,1,8,0,0,0,0,8,0,0,0,0,0,0,0,2,8,7,0,0,0,0,0,0,0,0,0,2,0,0,8,0,2,1,0,7,0,2,0,0,0,0,0,0,0,0,0,0,0,0,0,0,0,0,0,0,0,0,0],"split_type":[0,0,0,0,0,0,0,0,0,0,0,0,0,0,0,0,0,0,0,0,0,0,0,0,0,0,0,0,0,0,0,0,0,0,0,0,0,0,0,0,0,0,0,0,0,0,0,0,0,0,0,0,0,0,0,0,0,0,0,0,0,0,0,0,0,0,0,0,0,0,0,0,0,0,0,0,0,0,0,0,0,0,0,0,0,0,0,0,0,0,0,0,0,0,0,0,0,0,0,0,0,0,0,0,0,0,0,0,0,0,0,0,0,0,0,0,0,0,0,0,0,0,0,0,0,0,0,0,0,0,0,0,0,0,0,0,0,0,0,0,0,0,0,0,0,0,0,0,0,0,0],"sum_hessian":[8.976329E3,7.404842E3,1.5714873E3,7.352671E3,5.2171112E1,1.416383E3,1.5510428E2,5.600311E3,1.7523597E3,4.2633907E1,9.537207E0,1.1535157E3,2.6286728E2,9.183323E1,6.327105E1,5.025904E3,5.74407E2,1.4885531E3,2.638066E2,3.244647E1,1.0187436E1,1.1053431E3,4.81726E1,1.0189449E2,1.6097276E2,7.469952E1,1.7133715E1,3.0256338E1,3.301471E1,4.040199E2,1.7038712E2,9.771782E2,5.113749E2,1.3446347E1,1.9000122E1,3.5979788E2,7.455453E2,2.99681E1,1.8204502E1,5.17124E1,5.01821E1,1.0910623E2,5.1866535E1,6.115362E1,1.3545893E1,2.1150295E1,9.106043E0,1.2579881E1,2.043483E1,2.4624008E2,1.577798E2,9.827753E1,7.210958E1,9.445283E2,3.2649906E1,9.726831E0,9.273291E0,3.1554623E2,4.4251633E1,2.2011656E2,5.254287E2,1.4884379E1,1.5083719E1,9.170994E0,9.033507E0,2.9714432E1,2.0467669E1,8.335896E1,2.5747274E1,2.7028702E1,2.4837833E1,5.2005886E1,9.1477375E0,1.1839142E1,9.311154E0,1.3756367E1,2.3248372E2,1.1721879E1,1.4605792E2,8.70112E1,1.1266329E1,2.1578796E1,5.0530785E1,9.985995E1,8.446684E2,1.8543718E1,1.4106187E1,2.998147E2,1.5731535E1,1.2078538E1,3.2173096E1,1.2081899E2,9.929758E1,2.4005219E2,2.8537656E2,1.1685085E1,1.8029346E1,1.1165542E1,9.302126E0,6.911013E1,1.4248829E1,1.086917E1,1.4878104E1,1.2149484E1,1.4879218E1,1.5010611E1,9.827223E0,2.9240725E1,2.2765162E1,3.0374681E1,1.1568324E2,1.4530307E1,7.2480896E1,9.7869625E0,1.1791835E1,1.7978498E1,3.2552284E1,1.7167906E1,8.275005E2,2.614271E2,3.8387615E1,1.0476592E1,2.1696503E1,5.574974E1,6.506925E1,1.0814934E2,1.3190285E2,2.3645938E2,4.891717E1,5.2283558E1,1.6826574E1,1.3210662E1,1.6030062E1,9.492283E0,1.3272879E1,1.3254839E1,1.7119843E1,2.6501043E1,2.3492606E2,1.2670907E1,9.025596E0,1.0925104E1,5.4144146E1,4.2296474E1,6.585286E1,9.68098E1,3.5093052E1,2.2306146E2,1.3397915E1,3.191374E1,2.0369818E1],"tree_param":{"num_deleted":"0","num_feature":"9","num_nodes":"151","size_leaf_vector":"1"}},{"base_weights":[-9.2864865E-1,-9.843487E-1,-6.727843E-1,-9.904883E-1,-1.7473316E-1,-7.266548E-1,-2.005878E-1,-1.01072E0,-9.2571694E-1,-9.522397E-2,-4.9686108E-2,-8.0133194E-1,-4.0790245E-1,1.0500183E-1,-6.6634434E-1,-1.0219715E0,-9.115826E-1,-9.097777E-1,-1.0123404E-1,-2.6081893E-1,3.853717E-2,-8.1667197E-1,-4.5064542E-1,-7.1900636E-1,-2.1575823E-1,-1.445257E-1,1.8041335E-1,-4.7236127E-1,-8.291921E-1,-9.852371E-2,-1.0284032E0,-9.581847E-1,-7.974278E-1,-8.7870324E-1,-9.6763365E-2,-4.6409287E-2,-1.04881525E-1,-7.576914E-1,-8.4421587E-1,-6.474795E-1,-1.2294151E-1,-9.9134475E-1,-4.3739393E-1,-1.17734574E-1,-4.2032936E-1,-4.375572E-2,2.4988523E-2,5.0904788E-2,9.1946125E-2,-8.0736436E-2,-1.5954627E-2,-5.483346E-2,-9.717464E-2,-1.0402069E-1,-9.9939936E-1,-1.0003554E0,-8.866856E-1,-8.847764E-1,-6.9684E-1,-8.849435E-1,-6.7939925E-1,9.1953445E-3,-3.063537E-2,-8.1763303E-1,-3.3887485E-1,-9.6799666E-1,-7.912639E-1,-4.1292872E-2,-9.211233E-2,-2.1362899E-2,-2.007128E-3,-7.092772E-2,-1.0466478E-1,-3.0441368E-1,-6.1049366E-1,-2.888893E-1,3.9932093E-1,-5.861194E-1,-1.8461701E-1,-5.51021E-2,2.281037E-1,-5.6502366E-1,-1.0138879E-1,-7.147428E-2,-1.0142594E-1,-4.2641222E-2,-9.217547E-1,-9.3833333E-1,-4.5696776E-2,-5.427699E-1,-8.003026E-1,-9.798887E-2,-8.7258136E-1,-8.563949E-2,-4.1228186E-2,-6.4245963E-1,-8.3395344E-1,-6.821012E-2,-1.98258E-1,-8.914059E-1,-1.05177365E-1,-6.845298E-1,-8.7968147E-1,1.2688636E-2,-5.924316E-2,-9.083077E-2,-2.1679979E-2,-7.753334E-2,-4.015202E-1,5.3534623E-2,1.5460542E-2,-3.6887955E-2,-7.029262E-2,-6.377318E-4,-3.735758E-2,4.2759004E-1,6.5739244E-2,-9.3073145E-2,-1.22549E-2,-7.061525E-1,-9.726419E-2,-6.681394E-2,-9.9036835E-2,-3.112474E-2,-6.691747E-2,-6.833533E-1,-9.602003E-2,-5.0604355E-2,-8.7976E-1,-8.1836514E-2,-4.9988575E-2,-7.9817516E-1,-1.004959E-1,9.108952E-3,-3.4062278E-1,-1.0160241E-1,-7.7211666E-1,-8.167099E-1,-5.727949E-1,-9.12269E-1,-7.591231E-1,-2.4321976E-1,2.223554E-2,-7.191583E-2,-2.6852643E-1,2.2889238E-2,5.910633E-2,5.3216655E-2,-1.872875E-2,-9.198098E-2,-5.0267935E-2,-7.852446E-2,-5.147144E-2,-1.00837134E-1,-8.708337E-2,-9.899545E-2,-7.720883E-2,-4.710495E-2,-1.478774E-2,-3.8939413E-2,-8.432571E-2,-6.258352E-2,-9.3040384E-2,-4.5137636E-2,-8.970704E-2,-9.272516E-2,-6.260988E-2,-3.9389092E-2,-8.978402E-2,-6.996591E-4,-4.4262554E-2,1.2527662E-2,-5.2038778E-2],"categories":[],"categories_nodes":[],"categories_segments":[],"categories_sizes":[],"default_left":[0,0,1,1,0,0,0,0,0,0,0,1,0,1,0,0,0,1,0,0,0,0,0,0,0,0,0,0,0,0,0,0,0,0,0,0,0,0,0,0,0,0,0,0,0,0,0,0,0,0,0,0,0,0,0,0,0,0,0,0,0,0,0,0,0,0,0,0,0,0,0,0,0,0,0,0,0,0,0,0,0,0,0,0,0,0,0,0,0,0,0,0,0,0,0,0,0,0,0,0,0,0,1,0,0,0,0,0,0,0,0,0,0,0,0,0,0,0,0,0,0,0,0,0,0,0,0,0,0,0,0,0,0,0,0,0,0,0,1,0,0,0,0,0,0,0,0,0,0,0,0,0,0,0,0,0,0,0,0,0,0,0,0,0,0,0,0,0,0,0,0,0,0],"id":6,"left_children":[1,3,5,7,9,11,13,15,17,19,-1,21,23,25,27,29,31,33,-1,35,-1,37,39,41,43,45,47,49,51,-1,53,55,57,59,-1,-1,61,63,65,67,69,71,73,75,77,-1,-1,-1,79,-1,-1,-1,-1,-1,81,83,85,87,89,91,93,-1,-1,95,97,99,101,-1,-1,-1,-1,-1,-1,103,105,107,109,111,113,-1,115,117,-1,-1,-1,-1,119,121,-1,123,125,-1,127,-1,-1,129,131,-1,133,135,-1,137,139,-1,-1,-1,-1,141,143,-1,-1,-1,-1,-1,-1,145,147,-1,-1,149,-1,-1,-1,-1,-1,151,-1,-1,153,-1,-1,155,-1,-1,157,-1,159,161,163,165,167,169,-1,-1,171,-1,-1,-1,-1,-1,-1,-1,-1,-1,-1,-1,-1,-1,-1,-1,-1,-1,-1,-1,-1,-1,-1,-1,-1,-1,-1,-1,-1],"loss_changes":[1.1741553E2,3.3637207E1,3.7612244E1,7.9101562E0,1.2949284E0,3.1378479E1,2.1900839E1,4.7944336E0,1.3137207E0,3.5440452E0,0E0,5.4317017E0,1.5079437E1,1.7850969E0,1.5322113E0,7.373047E-2,2.0683594E0,1.6252441E0,0E0,9.902952E-1,0E0,1.0363159E0,2.9787683E0,6.996338E0,3.1385002E0,2.6808548E0,2.0531497E0,3.0273685E0,7.39727E-1,0E0,2.9345703E-1,2.3803711E-1,7.919388E-1,5.263672E-1,0E0,0E0,8.1496906E-1,8.21283E0,3.7861633E0,1.5058308E0,1.7321265E-1,1.3576508E-2,9.516945E-1,9.749817E0,1.8891611E0,0E0,0E0,0E0,5.2146754E0,0E0,0E0,0E0,0E0,0E0,6.6744385E0,1.7610168E-1,1.9833832E0,1.4521179E0,8.2835007E-1,1.729126E-1,1.1518507E0,0E0,0E0,3.079834E-1,1.9907207E0,3.6888123E-1,4.0400085E0,0E0,0E0,0E0,0E0,0E0,0E0,3.7946398E0,2.2037878E0,1.9297857E0,8.3246565E-1,4.9044895E-1,7.5760335E-1,0E0,1.5485666E0,6.2661953E0,0E0,0E0,0E0,0E0,8.046417E-1,3.5071564E-1,0E0,8.140211E-1,1.9063759E-1,0E0,1.6177979E0,0E0,0E0,3.3096504E-1,8.2914734E-1,0E0,1.3762637E0,8.942032E-1,0E0,2.8903046E0,3.5064697E-1,0E0,0E0,0E0,0E0,1.538527E0,2.066842E0,0E0,0E0,0E0,0E0,0E0,0E0,5.6828785E-1,3.406305E0,0E0,0E0,8.248148E-1,0E0,0E0,0E0,0E0,0E0,1.048193E-1,0E0,0E0,3.1738281E-3,0E0,0E0,3.6306763E-1,0E0,0E0,4.8588657E-1,0E0,1.3559532E0,1.6271057E0,4.578308E0,2.9441833E-1,2.8106995E0,9.2585826E-1,0E0,0E0,3.9636137E0,0E0,0E0,0E0,0E0,0E0,0E0,0E0,0E0,0E0,0E0,0E0,0E0,0E0,0E0,0E0,0E0,0E0,0E0,0E0,0E0,0E0,0E0,0E0,0E0,0E0,0E0,0E0,0E0],"parents":[2147483647,0,0,1,1,2,2,3,3,4,4,5,5,6,6,7,7,8,8,9,9,11,11,12,12,13,13,14,14,15,15,16,16,17,17,19,19,21,21,22,22,23,23,24,24,25,25,26,26,27,27,28,28,30,30,31,31,32,32,33,33,36,36,37,37,38,38,39,39,40,40,41,41,42,42,43,43,44,44,48,48,54,54,55,55,56,56,57,57,58,58,59,59,60,60,63,63,64,64,65,65,66,66,73,73,74,74,75,75,76,76,77,77,78,78,80,80,81,81,86,86,87,87,89,89,90,90,92,92,95,95,96,96,98,98,99,99,101,101,102,102,107,107,108,108,115,115,116,116,119,119,125,125,128,128,131,131,134,134,136,136,137,137,138,138,139,139,140,140,141,141,144,144],"right_children":[2,4,6,8,10,12,14,16,18,20,-1,22,24,26,28,30,32,34,-1,36,-1,38,40,42,44,46,48,50,52,-1,54,56,58,60,-1,-1,62,64,66,68,70,72,74,76,78,-1,-1,-1,80,-1,-1,-1,-1,-1,82,84,86,88,90,92,94,-1,-1,96,98,100,102,-1,-1,-1,-1,-1,-1,104,106,108,110,112,114,-1,116,118,-1,-1,-1,-1,120,122,-1,124,126,-1,128,-1,-1,130,132,-1,134,136,-1,138,140,-1,-1,-1,-1,142,144,-1,-1,-1,-1,-1,-1,146,148,-1,-1,150,-1,-1,-1,-1,-1,152,-1,-1,154,-1,-1,156,-1,-1,158,-1,160,162,164,166,168,170,-1,-1,172,-1,-1,-1,-1,-1,-1,-1,-1,-1,-1,-1,-1,-1,-1,-1,-1,-1,-1,-1,-1,-1,-1,-1,-1,-1,-1,-1,-1],"split_conditions":[3.2E2,3.269E0,4E0,4E0,1.5160429E9,2.53E0,8E0,7.19E-1,8E0,1.5160365E9,-4.9686108E-2,4.8E2,2.048E3,4.8E2,7.68E2,4.6E1,2.5E2,3E1,-1.0123404E-1,4.29E0,3.853717E-2,1.7094018E-1,1E0,4.29E0,3.269E0,3.8E1,1.1E1,1.3E1,2.2E1,-9.852371E-2,3E-1,1.5160383E9,1.5160293E9,1.5160426E9,-9.6763365E-2,-4.6409287E-2,1.5160236E9,1.7E-1,5.1E-1,5.71E-1,1.7E1,8E0,1.5160288E9,2.86E0,1.5160314E9,-4.375572E-2,2.4988523E-2,5.0904788E-2,2.1E1,-8.0736436E-2,-1.5954627E-2,-5.483346E-2,-9.717464E-2,-1.0402069E-1,3.0769232E-1,3E0,1.5160398E9,2.4691358E0,1E0,1.5159963E9,8E-2,9.1953445E-3,-3.063537E-2,7.68E2,1.1E1,3.521111E-1,1.2452108E0,-4.1292872E-2,-9.211233E-2,-2.1362899E-2,-2.007128E-3,-7.092772E-2,-1.0466478E-1,2.1E1,3.5E1,1.3E1,1.5160297E9,2.2E1,2E1,-5.51021E-2,1.5160311E9,2.5E2,-1.0138879E-1,-7.147428E-2,-1.0142594E-1,-4.2641222E-2,2.7E1,1.5159963E9,-4.5696776E-2,2.3E1,1.5160474E9,-9.798887E-2,1.5159973E9,-8.563949E-2,-4.1228186E-2,8E-2,9.589E-2,-6.821012E-2,1.5160301E9,1.5160271E9,-1.05177365E-1,7.6E-1,2.4E1,1.2688636E-2,-5.924316E-2,-9.083077E-2,-2.1679979E-2,4E1,1.5160311E9,5.3534623E-2,1.5460542E-2,-3.6887955E-2,-7.029262E-2,-6.377318E-4,-3.735758E-2,1.5160201E9,3.3E1,-9.3073145E-2,-1.22549E-2,2.1E1,-9.726419E-2,-6.681394E-2,-9.9036835E-2,-3.112474E-2,-6.691747E-2,1.5160401E9,-9.602003E-2,-5.0604355E-2,1.5159997E9,-8.1836514E-2,-4.9988575E-2,1.5159954E9,-1.004959E-1,9.108952E-3,3.5E1,-1.0160241E-1,1.5160329E9,5.48E-1,2.1E1,1.5160541E9,7.68E2,2.2E1,2.223554E-2,-7.191583E-2,1.9E1,2.2889238E-2,5.910633E-2,5.3216655E-2,-1.872875E-2,-9.198098E-2,-5.0267935E-2,-7.852446E-2,-5.147144E-2,-1.00837134E-1,-8.708337E-2,-9.899545E-2,-7.720883E-2,-4.710495E-2,-1.478774E-2,-3.8939413E-2,-8.432571E-2,-6.258352E-2,-9.3040384E-2,-4.5137636E-2,-8.970704E-2,-9.272516E-2,-6.260988E-2,-3.9389092E-2,-8.978402E-2,-6.996591E-4,-4.4262554E-2,1.2527662E-2,-5.2038778E-2],"split_indices":[3,1,5,5,2,1,5,1,5,2,0,4,3,3,3,0,3,0,0,1,0,1,1,1,1,8,8,7,8,0,1,2,2,2,0,0,2,1,1,1,7,7,2,1,2,0,0,0,8,0,0,0,0,0,1,7,2,1,1,2,1,0,0,3,7,1,1,0,0,0,0,0,0,8,8,7,2,8,7,0,2,3,0,0,0,0,0,2,0,8,2,0,2,0,0,1,1,0,2,2,0,1,0,0,0,0,0,8,2,0,0,0,0,0,0,2,8,0,0,7,0,0,0,0,0,2,0,0,2,0,0,2,0,0,8,0,2,1,0,2,3,8,0,0,7,0,0,0,0,0,0,0,0,0,0,0,0,0,0,0,0,0,0,0,0,0,0,0,0,0,0,0,0],"split_type":[0,0,0,0,0,0,0,0,0,0,0,0,0,0,0,0,0,0,0,0,0,0,0,0,0,0,0,0,0,0,0,0,0,0,0,0,0,0,0,0,0,0,0,0,0,0,0,0,0,0,0,0,0,0,0,0,0,0,0,0,0,0,0,0,0,0,0,0,0,0,0,0,0,0,0,0,0,0,0,0,0,0,0,0,0,0,0,0,0,0,0,0,0,0,0,0,0,0,0,0,0,0,0,0,0,0,0,0,0,0,0,0,0,0,0,0,0,0,0,0,0,0,0,0,0,0,0,0,0,0,0,0,0,0,0,0,0,0,0,0,0,0,0,0,0,0,0,0,0,0,0,0,0,0,0,0,0,0,0,0,0,0,0,0,0,0,0,0,0,0,0,0,0],"sum_hessian":[8.284172E3,6.800827E3,1.4833446E3,6.7494204E3,5.140648E1,1.3309629E3,1.5238168E2,5.131853E3,1.6175675E3,4.2269035E1,9.137442E0,1.0771053E3,2.5385754E2,9.2479256E1,5.9902424E1,4.600424E3,5.314291E2,1.3758971E3,2.4167035E2,3.1777143E1,1.0491892E1,1.0306912E3,4.6414165E1,9.5877945E1,1.579796E2,2.124979E1,7.122946E1,2.9117952E1,3.0784472E1,7.084298E2,3.8919941E3,3.7212183E2,1.5930725E2,9.056562E2,4.7024097E2,1.2936926E1,1.8840218E1,3.3718182E2,6.935094E2,2.838751E1,1.8026655E1,4.7460327E1,4.841762E1,1.07868256E2,5.0111347E1,1.2129021E1,9.12077E0,1.409942E1,5.7130043E1,1.3296916E1,1.5821036E1,1.1996235E1,1.8788237E1,2.7414382E3,1.1505558E3,2.2589569E2,1.4622612E2,8.109218E1,7.821508E1,8.748251E2,3.0831066E1,9.80474E0,9.035477E0,2.9413284E2,4.304897E1,2.0260892E2,4.9090048E2,1.6636618E1,1.1750894E1,9.008411E0,9.018245E0,1.0046157E1,3.741417E1,2.8942076E1,1.9475546E1,8.137345E1,2.6494802E1,2.854642E1,2.1564926E1,9.451408E0,4.7678635E1,3.8428978E1,1.1121268E3,1.291913E1,2.1297656E2,1.1284126E1,1.34942E2,7.100926E1,1.0082915E1,3.393188E1,4.42832E1,9.176566E1,7.8305945E2,1.7216873E1,1.3614195E1,2.8508265E1,2.6562457E2,1.1391969E1,3.1657001E1,1.1192487E2,9.068405E1,2.2637352E2,2.6452695E2,1.1812533E1,1.7129541E1,1.0343755E1,9.131791E0,2.8875647E1,5.2497807E1,1.6265812E1,1.0228991E1,1.143583E1,1.7110588E1,1.1629183E1,9.935743E0,2.06607E1,2.7017937E1,2.0435476E1,1.79935E1,2.8608452E1,1.0633354E2,1.3701874E1,5.7307384E1,1.3206049E1,2.0725832E1,2.8622423E1,1.5660773E1,1.6414959E1,7.666445E2,1.0640385E1,1.786788E1,2.2435239E2,4.127219E1,1.0558229E1,2.1098772E1,5.10632E1,6.086167E1,1.0080906E2,1.2556446E2,2.030693E2,6.145764E1,1.8721252E1,1.0154394E1,1.4192771E1,3.8305035E1,1.0409E1,1.02516985E1,9.114023E0,1.7903913E1,1.2237695E1,1.6370756E1,1.5562955E1,1.3059469E1,4.2489384E1,7.241551E2,2.2439335E1,2.0191306E2,1.17225065E1,9.376266E0,1.055442E1,5.030725E1,4.0059624E1,6.0749435E1,9.3097786E1,3.2466682E1,1.9083768E2,1.2231636E1,1.7973698E1,4.348394E1,9.043311E0,9.67794E0,1.5138113E1,2.316692E1],"tree_param":{"num_deleted":"0","num_feature":"9","num_nodes":"173","size_leaf_vector":"1"}},{"base_weights":[-9.0982383E-1,-9.692878E-1,-6.445007E-1,-9.771263E-1,-2.8559566E-1,-6.991679E-1,-1.8582997E-1,-9.9951434E-1,-9.063408E-1,-4.9402785E-1,-5.486072E-2,-7.758302E-1,-3.8302952E-1,9.42726E-2,-6.385046E-1,-1.010185E0,-9.0610623E-1,-8.893761E-1,-9.994897E-2,-7.0405674E-1,-1.7092569E-2,-2.2877602E-2,1.1581129E-2,-7.917368E-1,-4.24393E-1,-6.922394E-1,-1.9970089E-1,-1.7644873E-2,1.5516342E-1,-3.2749426E-2,-7.379503E-1,-9.693632E-2,-1.0173134E0,-9.640771E-1,-8.1452566E-1,-8.5645765E-1,-9.511992E-2,-7.9695724E-2,-5.0977387E-2,-7.3065645E-1,-8.204953E-1,-6.1945397E-1,-1.1292516E-2,-9.773055E-1,-4.116374E-1,-1.0838674E-1,-3.9447033E-1,8.1510134E-2,6.016789E-2,-5.479756E-1,-8.922619E-2,-1.0296774E-1,-9.867111E-1,-7.5565904E-1,-9.828361E-2,-7.384041E-1,-1.01110995E-1,-8.630148E-1,-6.5154487E-1,-7.925652E-1,-3.1640732E-1,-9.518924E-1,-7.651789E-1,-8.592832E-2,-3.5050146E-2,-6.8343796E-2,-1.0368593E-1,-2.8307894E-1,-5.8270365E-1,-2.6816687E-1,3.527004E-1,-5.780325E-1,-1.9109116E-1,-1.7942008E-1,2.034193E-1,-8.801549E-2,-2.248937E-2,-5.373003E-1,-1.0025054E-1,-8.7366186E-2,-5.7222236E-2,-4.0686718E-1,-7.9585034E-1,-9.641922E-2,-8.4996355E-1,-8.3413236E-2,-3.8641643E-2,-6.839393E-1,-8.2491034E-1,-6.544562E-2,-1.8304543E-1,-8.7051654E-1,-1.0422975E-1,-6.5554273E-1,-8.576504E-1,1.1410463E-2,-5.6344014E-2,-8.806705E-2,-2.3336925E-2,-6.496292E-2,-3.7244934E-1,9.835168E-3,4.8258867E-2,-3.5674807E-2,-7.2697245E-2,-3.2844316E-2,2.584556E-3,6.1358246E-3,-4.1068915E-2,3.5066396E-1,-3.639121E-3,-9.13018E-2,-1.1211741E-2,-2.0351969E-2,-5.518609E-2,-5.6375796E-1,-8.479087E-1,-4.782574E-2,-8.575029E-1,-5.2304566E-1,-8.547407E-1,-9.139334E-1,-7.13243E-1,8.22132E-3,-3.1771386E-1,-1.0035982E-1,-7.459344E-1,-7.9170835E-1,-5.4291457E-1,-8.861333E-1,-7.045736E-1,-2.401752E-2,2.3582032E-2,-6.893873E-2,-2.4786535E-1,7.6998584E-3,7.251566E-2,-2.441912E-2,-7.93673E-2,-8.845379E-2,-5.550461E-2,-9.947139E-2,-8.4808104E-2,-7.270629E-2,-1.944222E-2,-6.775277E-2,-1.0056253E-1,-6.29285E-2,-9.364282E-2,-5.6155246E-2,-8.1010476E-2,-4.4374153E-2,-1.3600397E-2,-3.6511317E-2,-8.196979E-2,-5.960684E-2,-9.115817E-2,-4.2274505E-2,-8.7643676E-2,-7.4890964E-2,-9.20591E-2,-6.1970413E-2,-8.468613E-2,8.9934375E-3,-4.9112614E-2],"categories":[],"categories_nodes":[],"categories_segments":[],"categories_sizes":[],"default_left":[0,0,1,1,0,0,0,0,0,0,0,1,0,0,0,0,0,1,0,0,0,0,0,0,0,0,0,0,0,0,0,0,0,0,1,0,0,0,0,0,0,0,0,0,0,0,0,0,0,0,0,0,0,0,0,0,0,0,0,0,0,0,0,0,0,0,0,0,0,0,0,0,0,0,0,0,0,0,0,0,0,0,0,0,0,0,0,0,1,0,0,0,0,0,0,0,0,0,0,0,0,0,0,0,0,0,0,0,0,0,0,0,0,0,0,0,1,0,0,0,0,0,0,0,0,0,0,0,1,0,0,0,0,0,0,0,0,0,0,0,0,0,0,0,0,0,0,0,0,0,0,0,0,0,0,0,0,0,0,0,0,0,0,0,0],"id":7,"left_children":[1,3,5,7,9,11,13,15,17,19,21,23,25,27,29,31,33,35,-1,37,-1,-1,-1,39,41,43,45,-1,47,-1,49,-1,51,53,55,57,-1,-1,-1,59,61,63,-1,65,67,69,71,73,-1,75,-1,-1,77,79,-1,81,-1,83,85,87,89,91,93,-1,-1,-1,-1,95,97,99,101,103,105,107,109,-1,-1,111,-1,-1,-1,113,115,-1,117,-1,-1,119,121,-1,123,125,-1,127,129,-1,-1,-1,-1,131,133,-1,-1,-1,-1,-1,-1,-1,-1,135,-1,-1,-1,-1,-1,137,139,-1,141,143,145,147,149,-1,151,-1,153,155,157,159,161,-1,-1,-1,163,-1,-1,-1,-1,-1,-1,-1,-1,-1,-1,-1,-1,-1,-1,-1,-1,-1,-1,-1,-1,-1,-1,-1,-1,-1,-1,-1,-1,-1,-1],"loss_changes":[1.2007764E2,3.3203613E1,3.5066406E1,8.8828125E0,3.4467168E0,3.0090698E1,1.9186666E1,3.7519531E0,1.4732666E0,2.4465027E0,1.077455E0,5.2997437E0,1.3845581E1,1.5778443E0,1.5456581E0,2.34375E-1,1.8151245E0,1.7773438E0,0E0,1.6965866E-3,0E0,0E0,0E0,1.0927124E0,2.7132387E0,6.9098854E0,2.7365618E0,0E0,2.493731E0,0E0,7.7132416E-1,0E0,3.2763672E-1,4.086609E-1,2.1909943E0,5.678711E-1,0E0,0E0,0E0,7.8919983E0,3.973053E0,1.5014029E0,0E0,7.223511E-2,8.8616085E-1,8.034304E0,1.7375464E0,2.184505E0,0E0,2.148098E0,0E0,0E0,6.8830566E0,1.200943E-1,0E0,2.4419785E0,0E0,2.5268555E-1,1.1378212E0,4.0400696E-1,1.8163486E0,4.7232056E-1,4.10437E0,0E0,0E0,0E0,0E0,3.319496E0,1.8307357E0,1.683847E0,8.830745E-1,5.818815E-1,7.5271213E-1,1.2521604E0,1.654449E0,0E0,0E0,5.912837E0,0E0,0E0,0E0,5.8033943E-1,1.0048218E0,0E0,1.6290894E0,0E0,0E0,1.4512634E0,1.4107513E0,0E0,1.1758374E0,9.883194E-1,0E0,2.8650742E0,4.501953E-1,0E0,0E0,0E0,0E0,1.5611248E0,1.9240665E0,0E0,0E0,0E0,0E0,0E0,0E0,0E0,0E0,2.9059691E0,0E0,0E0,0E0,0E0,0E0,1.6774406E0,5.630951E-1,0E0,7.6660156E-2,2.4162588E0,1.7244339E-1,1.2718964E-1,9.6429825E-1,0E0,4.3322206E-1,0E0,1.3301086E0,1.6864052E0,4.469776E0,2.7471924E-1,1.0261536E-3,0E0,0E0,0E0,3.302075E0,0E0,0E0,0E0,0E0,0E0,0E0,0E0,0E0,0E0,0E0,0E0,0E0,0E0,0E0,0E0,0E0,0E0,0E0,0E0,0E0,0E0,0E0,0E0,0E0,0E0,0E0,0E0,0E0,0E0,0E0],"parents":[2147483647,0,0,1,1,2,2,3,3,4,4,5,5,6,6,7,7,8,8,9,9,10,10,11,11,12,12,13,13,14,14,15,15,16,16,17,17,19,19,23,23,24,24,25,25,26,26,28,28,30,30,32,32,33,33,34,34,35,35,39,39,40,40,41,41,43,43,44,44,45,45,46,46,47,47,49,49,52,52,53,53,55,55,57,57,58,58,59,59,60,60,61,61,62,62,67,67,68,68,69,69,70,70,71,71,72,72,73,73,74,74,77,77,81,81,82,82,84,84,87,87,88,88,90,90,91,91,93,93,94,94,99,99,100,100,109,109,115,115,116,116,118,118,119,119,120,120,121,121,122,122,124,124,126,126,127,127,128,128,129,129,130,130,134,134],"right_children":[2,4,6,8,10,12,14,16,18,20,22,24,26,28,30,32,34,36,-1,38,-1,-1,-1,40,42,44,46,-1,48,-1,50,-1,52,54,56,58,-1,-1,-1,60,62,64,-1,66,68,70,72,74,-1,76,-1,-1,78,80,-1,82,-1,84,86,88,90,92,94,-1,-1,-1,-1,96,98,100,102,104,106,108,110,-1,-1,112,-1,-1,-1,114,116,-1,118,-1,-1,120,122,-1,124,126,-1,128,130,-1,-1,-1,-1,132,134,-1,-1,-1,-1,-1,-1,-1,-1,136,-1,-1,-1,-1,-1,138,140,-1,142,144,146,148,150,-1,152,-1,154,156,158,160,162,-1,-1,-1,164,-1,-1,-1,-1,-1,-1,-1,-1,-1,-1,-1,-1,-1,-1,-1,-1,-1,-1,-1,-1,-1,-1,-1,-1,-1,-1,-1,-1,-1,-1],"split_conditions":[3.2E2,2.4691358E0,4E0,4E0,4.29E0,2.53E0,8E0,7.09E-1,8E0,3.9E1,2.6E1,4.8E2,2.048E3,1.3E1,1.5159969E9,4.6E1,1.5160378E9,3E1,-9.994897E-2,1.5160256E9,-1.7092569E-2,-2.2877602E-2,1.1581129E-2,1.7094018E-1,1E0,4.29E0,3.269E0,-1.7644873E-2,1.5160421E9,-3.2749426E-2,7.68E2,-9.693632E-2,3E-1,1.5159895E9,2.7E1,1.5160426E9,-9.511992E-2,-7.9695724E-2,-5.0977387E-2,1.7E-1,5.1E-1,1.516034E9,-1.1292516E-2,8E0,1.5160288E9,2.86E0,1.5160271E9,2.1E1,6.016789E-2,1.8E1,-8.922619E-2,-1.0296774E-1,3.0769232E-1,3.7E1,-9.828361E-2,1.5160411E9,-1.01110995E-1,1.5159963E9,8E-2,1.5E1,1.1E1,3.521111E-1,1.2452108E0,-8.592832E-2,-3.5050146E-2,-6.8343796E-2,-1.0368593E-1,2.1E1,3.4E1,1.5160177E9,1.5160096E9,1.5160022E9,3.9E1,9E0,4.4E1,-8.801549E-2,-2.248937E-2,2.5E2,-1.0025054E-1,-8.7366186E-2,-5.7222236E-2,1E0,1.2E1,-9.641922E-2,1.5159973E9,-8.3413236E-2,-3.8641643E-2,1.6E1,1.5E1,-6.544562E-2,1.5160301E9,1.5160271E9,-1.0422975E-1,7.6E-1,5E1,1.1410463E-2,-5.6344014E-2,-8.806705E-2,-2.3336925E-2,4E1,1.5160311E9,9.835168E-3,4.8258867E-2,-3.5674807E-2,-7.2697245E-2,-3.2844316E-2,2.584556E-3,6.1358246E-3,-4.1068915E-2,3.6E1,-3.639121E-3,-9.13018E-2,-1.1211741E-2,-2.0351969E-2,-5.518609E-2,1.5160474E9,2.4E1,-4.782574E-2,1.5159997E9,9E0,8E0,7.68E2,8.547009E-2,8.22132E-3,3.5E1,-1.0035982E-1,1.5160329E9,5.48E-1,2.1E1,3.7E1,1.7006803E0,-2.401752E-2,2.3582032E-2,-6.893873E-2,1.9E1,7.6998584E-3,7.251566E-2,-2.441912E-2,-7.93673E-2,-8.845379E-2,-5.550461E-2,-9.947139E-2,-8.4808104E-2,-7.270629E-2,-1.944222E-2,-6.775277E-2,-1.0056253E-1,-6.29285E-2,-9.364282E-2,-5.6155246E-2,-8.1010476E-2,-4.4374153E-2,-1.3600397E-2,-3.6511317E-2,-8.196979E-2,-5.960684E-2,-9.115817E-2,-4.2274505E-2,-8.7643676E-2,-7.4890964E-2,-9.20591E-2,-6.1970413E-2,-8.468613E-2,8.9934375E-3,-4.9112614E-2],"split_indices":[3,1,5,5,1,1,5,1,5,8,8,4,3,7,2,0,2,0,0,2,0,0,0,1,1,1,1,0,2,0,3,0,1,2,0,2,0,0,0,1,1,2,0,7,2,1,2,8,0,7,0,0,1,0,0,2,0,2,1,8,7,1,1,0,0,0,0,8,8,2,2,2,8,8,8,0,0,3,0,0,0,1,8,0,2,0,0,7,7,0,2,2,0,1,8,0,0,0,0,8,2,0,0,0,0,0,0,0,0,8,0,0,0,0,0,2,0,0,2,8,8,3,1,0,8,0,2,1,0,0,1,0,0,0,7,0,0,0,0,0,0,0,0,0,0,0,0,0,0,0,0,0,0,0,0,0,0,0,0,0,0,0,0,0,0],"split_type":[0,0,0,0,0,0,0,0,0,0,0,0,0,0,0,0,0,0,0,0,0,0,0,0,0,0,0,0,0,0,0,0,0,0,0,0,0,0,0,0,0,0,0,0,0,0,0,0,0,0,0,0,0,0,0,0,0,0,0,0,0,0,0,0,0,0,0,0,0,0,0,0,0,0,0,0,0,0,0,0,0,0,0,0,0,0,0,0,0,0,0,0,0,0,0,0,0,0,0,0,0,0,0,0,0,0,0,0,0,0,0,0,0,0,0,0,0,0,0,0,0,0,0,0,0,0,0,0,0,0,0,0,0,0,0,0,0,0,0,0,0,0,0,0,0,0,0,0,0,0,0,0,0,0,0,0,0,0,0,0,0,0,0,0,0],"sum_hessian":[7.6494976E3,6.246815E3,1.402683E3,6.175583E3,7.123191E1,1.2528376E3,1.4984523E2,4.6817256E3,1.4938573E3,3.6825153E1,3.4406757E1,1.0071529E3,2.456848E2,9.3056305E1,5.678893E1,4.1929263E3,4.887995E2,1.2726289E3,2.2122838E2,2.1603193E1,1.522196E1,1.6872839E1,1.7533918E1,9.62343E2,4.4809902E1,9.041353E1,1.5527127E2,1.6738583E1,7.6317726E1,1.4799038E1,4.198989E1,6.4369135E2,3.5492349E3,2.934912E2,1.9530827E2,8.401402E2,4.3248877E2,1.2516241E1,9.086951E0,3.1651068E2,6.4583234E2,2.6945866E1,1.7864038E1,4.3618355E1,4.679517E1,1.06770386E2,4.8500885E1,6.652662E1,9.791102E0,2.0859993E1,2.1129896E1,2.504647E3,1.0445878E3,2.7643665E1,2.6584756E2,1.442196E2,5.1088673E1,8.109776E2,2.9162586E1,2.745643E2,4.1946377E1,1.8653456E2,4.5929776E2,1.3083857E1,1.3862009E1,9.452264E0,3.4166092E1,2.8232716E1,1.8562452E1,7.960376E1,2.7166618E1,2.4524174E1,2.3976713E1,2.1034132E1,4.549249E1,9.435035E0,1.1424958E1,3.665414E1,1.00793365E3,1.4532393E1,1.3111271E1,2.249246E1,1.2172714E2,8.4332016E1,7.2664557E2,1.5998598E1,1.3163988E1,6.807851E1,2.064858E2,1.0761217E1,3.118516E1,1.0376349E2,8.277107E1,2.1384619E2,2.4545158E2,1.19277935E1,1.6304922E1,9.196903E0,9.365548E0,2.7547634E1,5.205613E1,9.777468E0,1.738915E1,1.1231884E1,1.3292291E1,1.4366597E1,9.610115E0,1.0665148E1,1.0368985E1,2.78997E1,1.7592789E1,1.8849878E1,1.7804262E1,1.0362764E1,1.2129695E1,2.4468441E1,9.7258705E1,1.5726514E1,7.1091907E2,3.714784E1,3.0930672E1,1.1089448E2,9.559131E1,1.0632217E1,2.055294E1,4.6758827E1,5.7004665E1,9.4078E1,1.1976819E2,2.0290787E2,4.2543713E1,1.7534777E1,1.0012858E1,1.3409428E1,3.86467E1,1.681646E1,1.10832405E1,1.1100947E1,1.3367494E1,8.465084E1,1.2607858E1,3.896022E1,6.7195886E2,2.2171068E1,1.4976769E1,1.6749208E1,1.4181463E1,1.0243845E1,1.00650635E2,3.990127E1,5.569004E1,1.1284425E1,9.268517E0,1.0215341E1,4.678932E1,3.8012295E1,5.606571E1,8.971205E1,3.005614E1,4.5287926E1,1.5761993E2,3.0003195E1,1.2540517E1,1.6443302E1,2.2203398E1],"tree_param":{"num_deleted":"0","num_feature":"9","num_nodes":"165","size_leaf_vector":"1"}},{"base_weights":[-8.908477E-1,-9.542766E-1,-6.164206E-1,-9.626999E-1,-2.6544106E-1,-6.717284E-1,-1.7190145E-1,-9.869243E-1,-8.867935E-1,-1.7678075E-1,-7.7925734E-2,-7.501902E-1,-3.591404E-1,8.483339E-2,-6.1073774E-1,-9.9849373E-1,-8.867687E-1,-8.6875033E-1,-9.869204E-2,-4.0729192E-1,6.571359E-2,-7.666445E-1,-3.9882216E-1,-6.6559243E-1,-1.8460193E-1,1.4301054E-1,-1.7389368E-2,-4.164445E-1,-7.8330326E-1,-9.5447354E-2,-1.0062146E0,-9.4855314E-1,-7.9062444E-1,-8.33942E-1,-9.347362E-1,-7.33192E-2,-1.5094699E-2,-1.1493482E-1,4.536346E-2,-7.0372313E-1,-7.965361E-1,-5.916699E-1,-1.0313014E-2,-9.634477E-2,-3.8689956E-1,-9.960335E-2,-3.6965224E-1,3.855E-2,7.784008E-2,-7.625852E-2,-1.1781547E-2,-4.8303887E-2,-9.441783E-2,-1.01961866E-1,-9.731729E-1,-7.30806E-1,-9.686349E-2,-7.1186835E-1,-9.991783E-2,-8.4081763E-1,-6.238838E-1,-9.8157756E-2,-8.8422084E-1,8.976338E-3,-2.8928712E-2,-7.795323E-1,-3.5408416E-1,-9.3581176E-1,-7.38902E-1,-3.4856968E-2,-8.897027E-2,-2.6291287E-1,-5.5547953E-2,-2.484345E-1,3.1229186E-1,-4.8407876E-1,-7.191457E-3,-4.472544E-2,1.7986843E-1,-5.1011324E-1,-9.901791E-2,-8.5353084E-2,-5.448441E-2,-3.818434E-1,-7.711564E-1,-9.485679E-2,-8.270586E-1,-8.117415E-2,-3.615759E-2,-7.916128E-1,-9.716653E-2,-7.442859E-1,-9.979179E-2,4.9882843E-3,-4.8016512E-1,-8.4942895E-1,-1.0334148E-1,-6.266577E-1,-8.353621E-1,-5.5009615E-2,1.0955448E-2,-1.81212E-1,-5.6032635E-2,4.3718155E-2,9.17332E-3,-2.2274006E-2,-6.5020435E-2,3.5970837E-1,4.0232882E-2,-8.9523636E-2,-1.0248897E-2,-1.8800173E-2,-5.2385688E-2,-5.3641796E-1,-8.252722E-1,-4.5116138E-2,-8.34963E-1,-7.091764E-1,-9.238319E-2,-9.260999E-2,-7.198815E-1,-6.387366E-1,-2.910087E-1,-9.914816E-2,-7.1958613E-1,-7.519892E-1,-5.010247E-1,-8.652215E-1,-6.7773056E-1,-2.6923257E-1,4.4049583E-2,2.0304352E-2,4.923181E-2,6.1819803E-2,-2.2932963E-1,-7.7351205E-2,-2.1374896E-2,-8.636716E-2,-5.2772988E-2,-9.813421E-2,-8.250293E-2,-7.855411E-2,-2.4710935E-2,-2.035929E-2,-7.452804E-2,-3.7774794E-2,-8.3140716E-2,-4.98929E-2,-1.8560727E-3,-3.418127E-2,-7.958771E-2,-7.993866E-2,-3.715621E-2,-3.6116283E-2,-8.556344E-2,-7.223363E-2,-9.01693E-2,-7.224436E-2,-4.6841722E-2,-1.70156E-2,-4.2545218E-2,1.1098219E-2,-3.0147997E-3,-3.6593452E-2,-9.1904765E-3],"categories":[],"categories_nodes":[],"categories_segments":[],"categories_sizes":[],"default_left":[0,0,1,1,0,0,0,0,0,0,0,1,0,0,0,0,0,1,0,0,0,0,0,0,0,0,0,0,0,0,0,0,1,0,0,0,0,0,0,0,0,0,0,0,0,0,0,0,0,0,0,0,0,0,0,0,0,0,0,0,0,0,0,0,0,0,0,0,0,0,0,0,0,0,0,0,0,0,0,0,0,0,0,0,0,0,0,0,0,0,0,0,0,0,0,0,0,0,0,0,0,0,0,0,0,0,0,0,0,0,0,0,0,0,1,0,0,0,0,0,0,0,0,0,0,0,1,0,1,0,0,0,0,0,0,0,0,0,0,0,0,0,0,0,0,0,0,0,0,0,0,0,0,0,0,0,0,0,0,0,0,0,0,0,0],"id":8,"left_children":[1,3,5,7,9,11,13,15,17,19,-1,21,23,25,27,29,31,33,-1,35,37,39,41,43,45,47,-1,49,51,-1,53,55,57,59,61,-1,-1,63,-1,65,67,69,-1,-1,71,73,75,-1,77,-1,-1,-1,-1,-1,79,81,-1,83,-1,85,87,-1,89,-1,-1,91,93,95,97,-1,-1,99,-1,101,103,105,-1,-1,107,109,-1,-1,-1,111,113,-1,115,-1,-1,117,-1,119,-1,-1,121,123,-1,125,127,-1,-1,129,-1,-1,-1,-1,-1,131,133,-1,-1,-1,-1,135,137,-1,139,141,-1,-1,143,145,147,-1,149,151,153,155,157,159,161,-1,-1,-1,163,-1,-1,-1,-1,-1,-1,-1,-1,-1,-1,-1,-1,-1,-1,-1,-1,-1,-1,-1,-1,-1,-1,-1,-1,-1,-1,-1,-1,-1,-1],"loss_changes":[1.2245752E2,3.304883E1,3.258136E1,9.55127E0,3.0840135E0,2.873114E1,1.6783184E1,4.084961E0,1.6385498E0,3.4705315E0,0E0,5.1535034E0,1.2669537E1,1.4483457E0,1.5156918E0,3.4375E-1,1.941803E0,1.9286499E0,0E0,2.5396008E0,2.2164686E0,1.1339722E0,2.4665627E0,6.7995644E0,2.3817167E0,1.1988156E0,0E0,2.8019767E0,8.9450264E-1,0E0,4.4555664E-1,4.7650146E-1,2.2990875E0,6.0357666E-1,7.5927734E-2,0E0,0E0,8.064939E-1,0E0,7.6423492E0,4.1503906E0,1.61833E0,0E0,0E0,8.218789E-1,6.6206994E0,1.6014695E0,0E0,3.4309924E0,0E0,0E0,0E0,0E0,0E0,7.0455933E0,1.4986229E-1,0E0,2.3767319E0,0E0,3.3258057E-1,1.1174679E0,0E0,8.6665344E-1,0E0,0E0,1.140625E0,2.8284922E0,5.7910156E-1,4.1473083E0,0E0,0E0,3.1175814E0,0E0,1.5539742E0,7.524648E-1,1.3538628E0,0E0,0E0,1.3184326E0,5.5643187E0,0E0,0E0,0E0,5.2835894E-1,1.0149536E0,0E0,1.6318054E0,0E0,0E0,4.7296906E-1,0E0,2.8555298E-1,0E0,0E0,1.0757055E0,1.080925E0,0E0,2.8257446E0,4.9150085E-1,0E0,0E0,1.3291738E0,0E0,0E0,0E0,0E0,0E0,3.793943E-1,4.9722652E0,0E0,0E0,0E0,0E0,1.6978579E0,5.8841324E-1,0E0,1.5136719E-1,2.2072945E0,0E0,0E0,2.388321E0,7.9436016E-1,1.1813096E0,0E0,1.297926E0,1.5028496E0,4.877184E0,3.3320618E-1,4.6123505E-2,6.6917706E-1,1.00316904E-1,0E0,0E0,0E0,3.769883E-1,0E0,0E0,0E0,0E0,0E0,0E0,0E0,0E0,0E0,0E0,0E0,0E0,0E0,0E0,0E0,0E0,0E0,0E0,0E0,0E0,0E0,0E0,0E0,0E0,0E0,0E0,0E0,0E0,0E0,0E0],"parents":[2147483647,0,0,1,1,2,2,3,3,4,4,5,5,6,6,7,7,8,8,9,9,11,11,12,12,13,13,14,14,15,15,16,16,17,17,19,19,20,20,21,21,22,22,23,23,24,24,25,25,27,27,28,28,30,30,31,31,32,32,33,33,34,34,37,37,39,39,40,40,41,41,44,44,45,45,46,46,48,48,54,54,55,55,57,57,59,59,60,60,62,62,65,65,66,66,67,67,68,68,71,71,73,73,74,74,75,75,78,78,79,79,83,83,84,84,86,86,89,89,91,91,94,94,95,95,97,97,98,98,101,101,107,107,108,108,113,113,114,114,116,116,117,117,120,120,121,121,122,122,124,124,125,125,126,126,127,127,128,128,129,129,130,130,134,134],"right_children":[2,4,6,8,10,12,14,16,18,20,-1,22,24,26,28,30,32,34,-1,36,38,40,42,44,46,48,-1,50,52,-1,54,56,58,60,62,-1,-1,64,-1,66,68,70,-1,-1,72,74,76,-1,78,-1,-1,-1,-1,-1,80,82,-1,84,-1,86,88,-1,90,-1,-1,92,94,96,98,-1,-1,100,-1,102,104,106,-1,-1,108,110,-1,-1,-1,112,114,-1,116,-1,-1,118,-1,120,-1,-1,122,124,-1,126,128,-1,-1,130,-1,-1,-1,-1,-1,132,134,-1,-1,-1,-1,136,138,-1,140,142,-1,-1,144,146,148,-1,150,152,154,156,158,160,162,-1,-1,-1,164,-1,-1,-1,-1,-1,-1,-1,-1,-1,-1,-1,-1,-1,-1,-1,-1,-1,-1,-1,-1,-1,-1,-1,-1,-1,-1,-1,-1,-1,-1],"split_conditions":[3.2E2,2.4691358E0,4E0,4E0,1.5160483E9,2.53E0,8E0,7.09E-1,8E0,4.29E0,-7.7925734E-2,4.8E2,2.048E3,3E-2,7.68E2,4.6E1,1.5160378E9,3E1,-9.869204E-2,3.2E1,1.5160394E9,1.7094018E-1,1E0,4.29E0,3.269E0,1.1E1,-1.7389368E-2,1.3E1,2.2E1,-9.5447354E-2,3E-1,1.5159895E9,2.7E1,1.5160426E9,3.1E1,-7.33192E-2,-1.5094699E-2,1.5160236E9,4.536346E-2,1.4E-1,5.1E-1,5.71E-1,-1.0313014E-2,-9.634477E-2,1.5160288E9,2.86E0,1.5160417E9,3.855E-2,2.1E1,-7.625852E-2,-1.1781547E-2,-4.8303887E-2,-9.441783E-2,-1.01961866E-1,3.0769232E-1,3.7E1,-9.686349E-2,1.5160411E9,-9.991783E-2,1.5159963E9,8E-2,-9.8157756E-2,4.6E1,8.976338E-3,-2.8928712E-2,9.589E-2,1.2E1,3.521111E-1,1.2452108E0,-3.4856968E-2,-8.897027E-2,1.5160069E9,-5.5547953E-2,1.5160457E9,1.5160297E9,2.2E1,-7.191457E-3,-4.472544E-2,1.5160311E9,2.5E2,-9.901791E-2,-8.5353084E-2,-5.448441E-2,1E0,1.2E1,-9.485679E-2,1.5159973E9,-8.117415E-2,-3.615759E-2,3.8E1,-9.716653E-2,1.5159954E9,-9.979179E-2,4.9882843E-3,3.6E1,1.5160271E9,-1.0334148E-1,8.5E-1,5E1,-5.5009615E-2,1.0955448E-2,4.6E1,-5.6032635E-2,4.3718155E-2,9.17332E-3,-2.2274006E-2,-6.5020435E-2,1.5160201E9,3.2E1,-8.9523636E-2,-1.0248897E-2,-1.8800173E-2,-5.2385688E-2,9.3E-1,2.4E1,-4.5116138E-2,1.5159997E9,3.7E1,-9.238319E-2,-9.260999E-2,1.5159991E9,2.3E1,1.7E1,-9.914816E-2,1.5160329E9,5.3E1,2.1E1,3.7E1,2.5E1,3E1,5.3E1,2.0304352E-2,4.923181E-2,6.1819803E-2,2.1E1,-7.7351205E-2,-2.1374896E-2,-8.636716E-2,-5.2772988E-2,-9.813421E-2,-8.250293E-2,-7.855411E-2,-2.4710935E-2,-2.035929E-2,-7.452804E-2,-3.7774794E-2,-8.3140716E-2,-4.98929E-2,-1.8560727E-3,-3.418127E-2,-7.958771E-2,-7.993866E-2,-3.715621E-2,-3.6116283E-2,-8.556344E-2,-7.223363E-2,-9.01693E-2,-7.224436E-2,-4.6841722E-2,-1.70156E-2,-4.2545218E-2,1.1098219E-2,-3.0147997E-3,-3.6593452E-2,-9.1904765E-3],"split_indices":[3,1,5,5,2,1,5,1,5,1,0,4,3,1,3,0,2,0,0,8,2,1,1,1,1,8,0,7,8,0,1,2,0,2,8,0,0,2,0,1,1,1,0,0,2,1,2,0,8,0,0,0,0,0,1,0,0,2,0,2,1,0,8,0,0,1,8,1,1,0,0,2,0,2,2,8,0,0,2,3,0,0,0,1,8,0,2,0,0,0,0,2,0,0,8,2,0,1,8,0,0,8,0,0,0,0,0,2,8,0,0,0,0,1,0,0,2,0,0,0,2,8,7,0,2,8,0,0,0,8,8,0,0,0,7,0,0,0,0,0,0,0,0,0,0,0,0,0,0,0,0,0,0,0,0,0,0,0,0,0,0,0,0,0,0],"split_type":[0,0,0,0,0,0,0,0,0,0,0,0,0,0,0,0,0,0,0,0,0,0,0,0,0,0,0,0,0,0,0,0,0,0,0,0,0,0,0,0,0,0,0,0,0,0,0,0,0,0,0,0,0,0,0,0,0,0,0,0,0,0,0,0,0,0,0,0,0,0,0,0,0,0,0,0,0,0,0,0,0,0,0,0,0,0,0,0,0,0,0,0,0,0,0,0,0,0,0,0,0,0,0,0,0,0,0,0,0,0,0,0,0,0,0,0,0,0,0,0,0,0,0,0,0,0,0,0,0,0,0,0,0,0,0,0,0,0,0,0,0,0,0,0,0,0,0,0,0,0,0,0,0,0,0,0,0,0,0,0,0,0,0,0,0],"sum_hessian":[7.0678853E3,5.7389517E3,1.3289336E3,5.669229E3,6.972252E1,1.1814275E3,1.4750607E2,4.2885874E3,1.3806416E3,6.0608433E1,9.114086E0,9.432619E2,2.3816557E2,9.357062E1,5.3935455E1,3.8364517E3,4.5213593E2,1.178033E3,2.026087E2,3.0723541E1,2.988489E1,8.999367E2,4.3325226E1,8.540292E1,1.5276265E2,7.675811E1,1.681251E1,2.6976078E1,2.6959377E1,5.910792E2,3.2453723E3,2.69855E2,1.8228091E2,7.801389E2,3.97894E2,1.270767E1,1.8015871E1,2.0869858E1,9.015033E0,2.9774048E2,6.021962E2,2.5617044E1,1.770818E1,4.0094543E1,4.5308384E1,1.0573429E2,4.7028355E1,1.5218202E1,6.1539906E1,1.1774568E1,1.5201511E1,1.0801517E1,1.6157862E1,2.2875344E3,9.57838E2,2.5943256E1,2.4391176E2,1.3551846E2,4.6762447E1,7.525051E2,2.7633783E1,1.9689142E2,2.010026E2,9.822693E0,1.1047165E1,2.4367665E2,5.4063816E1,1.717989E2,4.3039734E2,1.5303669E1,1.0313375E1,2.758202E1,1.7726364E1,7.796121E1,2.7773077E1,3.352007E1,1.35082855E1,9.461606E0,5.20783E1,3.502925E1,9.228088E2,1.3466364E1,1.24768915E1,2.1771065E1,1.137474E2,7.751597E1,6.7498914E2,1.4881472E1,1.2752312E1,1.0250132E2,9.850127E1,2.1360924E2,3.0067415E1,1.300376E1,4.106006E1,9.6285255E1,7.551365E1,2.0238823E2,2.2800911E2,1.5304727E1,1.2277292E1,6.5438225E1,1.2522987E1,1.710522E1,1.0667856E1,1.3936616E1,1.9583454E1,2.2073397E1,3.0004904E1,1.7396667E1,1.7632584E1,1.0188319E1,1.1582746E1,2.3354572E1,9.039282E1,1.5097498E1,6.5989166E2,6.705642E1,3.54449E1,2.0906584E1,1.9270265E2,2.1042871E1,2.0017187E1,4.2811714E1,5.347354E1,9.881994E1,1.0356828E2,1.8792285E2,4.0086258E1,4.6912174E1,1.8526054E1,1.1279249E1,1.07941475E1,9.131928E0,2.0872976E1,1.2657058E1,1.0697515E1,7.837539E1,1.2017435E1,3.572174E1,6.241699E2,5.694518E1,1.0111241E1,9.4582815E0,1.8324437E2,1.0194347E1,1.0848523E1,1.0881572E1,9.135614E0,9.905316E0,4.3568222E1,8.68927E1,1.1927241E1,7.572143E1,2.7846859E1,4.2444126E1,1.4547871E2,3.101039E1,9.075869E0,2.998469E1,1.6927485E1,9.479218E0,9.046837E0,9.63383E0,1.1239146E1],"tree_param":{"num_deleted":"0","num_feature":"9","num_nodes":"165","size_leaf_vector":"1"}},{"base_weights":[-8.7162304E-1,-9.392271E-1,-5.883738E-1,-9.482637E-1,-2.4672376E-1,-6.440791E-1,-1.5917435E-1,-9.7445494E-1,-8.670077E-1,-1.577172E-1,-7.072135E-2,-7.2420204E-1,-3.356627E-1,7.618461E-2,-5.834722E-1,-9.869957E-1,-8.671868E-1,-8.4786737E-1,-9.744709E-2,-3.7891546E-1,7.55383E-2,-7.4116516E-1,-3.7433398E-1,-6.3793033E-1,-1.7023316E-1,-2.4645697E-2,2.2462419E-1,-2.5774661E-2,-6.9139105E-1,-9.39506E-2,-9.95366E-1,-9.3295705E-1,-7.6647127E-1,-8.110731E-1,-9.182733E-1,-6.23746E-2,-6.8055703E-3,-1.4205878E-2,3.2333244E-2,-6.7636436E-1,-7.722273E-1,-5.643584E-1,-9.411951E-3,-9.4928354E-2,-3.6186424E-1,-9.13999E-2,-3.4525242E-1,8.4548466E-2,-4.12947E-2,5.36128E-2,4.6290763E-2,-8.461876E-2,-4.702874E-2,-1.0099097E-1,-9.5967466E-1,-7.05843E-1,-9.544523E-2,-6.8520707E-1,-9.874934E-2,-8.182645E-1,-5.9644747E-1,-9.683983E-2,-8.64729E-1,-7.542838E-1,-3.3126172E-1,-9.196329E-1,-7.123297E-1,-3.251033E-2,-8.707471E-2,-1.8149305E-2,-4.686259E-1,-2.2976595E-1,2.7742046E-1,-5.2572757E-1,-1.5553862E-1,4.033126E-2,-8.381429E-2,2.1330003E-2,-9.651348E-3,-4.8350766E-1,-9.779852E-2,-8.3323605E-2,-5.17865E-2,-3.5780126E-1,-7.4620616E-1,-9.3288705E-2,-8.037872E-1,-7.891657E-2,-3.3778455E-2,-7.6780653E-1,-9.578087E-2,-7.1768147E-1,-9.8610304E-2,4.507003E-3,-4.5350596E-1,-8.280572E-1,-1.0250135E-1,-5.9777254E-1,-8.127249E-1,-7.494024E-2,-2.1809839E-2,-4.230388E-2,-3.2919237E-1,4.745827E-3,3.9612955E-1,-3.0284172E-2,-6.8270035E-2,-2.9032657E-2,5.054676E-3,1.5491745E-2,-2.8055096E-2,-8.772927E-2,-9.361539E-3,-1.7348256E-2,-4.9644694E-2,-5.09581E-1,-8.023132E-1,-4.248143E-2,-8.1205624E-1,-6.8264794E-1,-9.069504E-2,-9.092305E-2,-6.924088E-1,-6.108422E-1,-2.7075177E-1,-9.79551E-2,-6.93063E-1,-7.41211E-1,-4.8418823E-1,-5.5454053E-2,-8.320634E-1,-2.0223802E-2,2.1792939E-2,-6.538372E-2,-2.0467432E-1,6.747424E-2,8.149032E-3,-1.885992E-2,-7.533725E-2,-8.42497E-2,-5.0088074E-2,-9.681272E-2,-8.0159985E-2,-7.612728E-2,-2.2937234E-2,-1.8832825E-2,-7.1843795E-2,-3.5369582E-2,-8.0760986E-2,-4.7167424E-2,-1.691143E-3,-3.1951346E-2,-7.717409E-2,-5.281164E-2,-8.765993E-2,-3.6753096E-2,-8.345773E-2,-8.4964804E-2,-5.0745368E-2,1.0157267E-2,-4.3989208E-2],"categories":[],"categories_nodes":[],"categories_segments":[],"categories_sizes":[],"default_left":[0,0,1,1,0,0,0,0,0,0,0,1,0,0,0,0,0,1,0,0,0,0,0,0,0,0,0,0,0,0,0,0,1,0,0,0,0,0,0,0,0,0,0,0,0,0,0,0,0,0,0,0,0,0,0,0,0,0,0,0,0,0,0,0,0,0,0,0,0,0,0,0,0,0,0,0,0,0,0,0,0,0,0,0,0,0,0,0,0,0,0,0,0,0,0,0,0,0,0,0,0,0,0,0,0,0,0,0,0,0,0,0,0,0,0,0,1,0,0,0,0,0,0,0,0,0,0,0,1,0,0,0,0,0,0,0,0,0,0,0,0,0,0,0,0,0,0,0,0,0,0,0,0,0,0,0,0,0,0,0,0],"id":9,"left_children":[1,3,5,7,9,11,13,15,17,19,-1,21,23,25,27,29,31,33,-1,35,37,39,41,43,45,47,49,-1,51,-1,53,55,57,59,61,-1,-1,-1,-1,63,65,67,-1,-1,69,71,73,75,-1,-1,77,-1,-1,-1,79,81,-1,83,-1,85,87,-1,89,91,93,95,97,-1,-1,-1,99,101,103,105,107,-1,109,-1,-1,111,-1,-1,-1,113,115,-1,117,-1,-1,119,-1,121,-1,-1,123,125,-1,127,129,-1,-1,131,133,-1,135,-1,-1,-1,-1,-1,-1,-1,-1,-1,-1,137,139,-1,141,143,-1,-1,145,147,149,-1,151,153,155,-1,157,-1,-1,-1,159,-1,-1,-1,-1,-1,-1,-1,-1,-1,-1,-1,-1,-1,-1,-1,-1,-1,-1,-1,-1,-1,-1,-1,-1,-1,-1],"loss_changes":[1.2461328E2,3.277832E1,3.0073975E1,1.0236328E1,2.7289891E0,2.7355255E1,1.4656646E1,4.43042E0,1.8031006E0,3.091609E0,0E0,4.9787903E0,1.1500959E1,1.4274387E0,1.6610241E0,4.609375E-1,2.0641785E0,2.0860596E0,0E0,2.289216E0,1.6488892E0,1.1759338E0,2.2352257E0,6.683918E0,2.0575633E0,2.4718294E0,2.1154218E0,0E0,9.268265E-1,0E0,5.7128906E-1,5.429535E-1,2.4011078E0,6.3287354E-1,1.4889526E-1,0E0,0E0,0E0,0E0,7.3178864E0,4.3180237E0,1.5795174E0,0E0,0E0,7.805505E-1,5.4605665E0,1.515851E0,2.4858565E0,0E0,0E0,6.3102156E-1,0E0,0E0,0E0,7.194763E0,1.7643547E-1,0E0,2.3004684E0,0E0,4.1177368E-1,1.0910378E0,0E0,9.5188904E-1,1.2337646E0,2.4872847E0,6.8859863E-1,4.1714325E0,0E0,0E0,0E0,1.778357E0,1.4296322E0,7.811501E-1,6.1519194E-1,6.860261E-1,0E0,1.4865751E0,0E0,0E0,5.2214193E0,0E0,0E0,0E0,4.7892308E-1,1.0176353E0,0E0,1.6253662E0,0E0,0E0,5.262909E-1,0E0,3.4484863E-1,0E0,0E0,1.0010118E0,1.1707153E0,0E0,2.784134E0,6.022186E-1,0E0,0E0,1.2089816E0,1.9060011E0,0E0,1.6273293E0,0E0,0E0,0E0,0E0,0E0,0E0,0E0,0E0,0E0,0E0,1.6839023E0,6.089325E-1,0E0,2.2631836E-1,2.106577E0,0E0,0E0,2.252884E0,7.7702427E-1,1.040767E0,0E0,1.2594967E0,1.9422989E0,4.2118225E0,0E0,6.8870544E-1,0E0,0E0,0E0,2.776774E0,0E0,0E0,0E0,0E0,0E0,0E0,0E0,0E0,0E0,0E0,0E0,0E0,0E0,0E0,0E0,0E0,0E0,0E0,0E0,0E0,0E0,0E0,0E0,0E0,0E0,0E0],"parents":[2147483647,0,0,1,1,2,2,3,3,4,4,5,5,6,6,7,7,8,8,9,9,11,11,12,12,13,13,14,14,15,15,16,16,17,17,19,19,20,20,21,21,22,22,23,23,24,24,25,25,26,26,28,28,30,30,31,31,32,32,33,33,34,34,39,39,40,40,41,41,44,44,45,45,46,46,47,47,50,50,54,54,55,55,57,57,59,59,60,60,62,62,63,63,64,64,65,65,66,66,70,70,71,71,72,72,73,73,74,74,76,76,79,79,83,83,84,84,86,86,89,89,91,91,94,94,95,95,97,97,98,98,101,101,102,102,104,104,115,115,116,116,118,118,119,119,122,122,123,123,124,124,126,126,127,127,128,128,130,130,134,134],"right_children":[2,4,6,8,10,12,14,16,18,20,-1,22,24,26,28,30,32,34,-1,36,38,40,42,44,46,48,50,-1,52,-1,54,56,58,60,62,-1,-1,-1,-1,64,66,68,-1,-1,70,72,74,76,-1,-1,78,-1,-1,-1,80,82,-1,84,-1,86,88,-1,90,92,94,96,98,-1,-1,-1,100,102,104,106,108,-1,110,-1,-1,112,-1,-1,-1,114,116,-1,118,-1,-1,120,-1,122,-1,-1,124,126,-1,128,130,-1,-1,132,134,-1,136,-1,-1,-1,-1,-1,-1,-1,-1,-1,-1,138,140,-1,142,144,-1,-1,146,148,150,-1,152,154,156,-1,158,-1,-1,-1,160,-1,-1,-1,-1,-1,-1,-1,-1,-1,-1,-1,-1,-1,-1,-1,-1,-1,-1,-1,-1,-1,-1,-1,-1,-1,-1],"split_conditions":[3.2E2,2.4691358E0,4E0,4E0,1.5160471E9,2.53E0,8E0,7.09E-1,8E0,4.29E0,-7.072135E-2,4.8E2,2.048E3,3.7E1,1.5159969E9,4.6E1,1.5160378E9,3E1,-9.744709E-2,3.9E1,1.5160323E9,1.7094018E-1,1E0,4.29E0,3.269E0,4.8E2,4.4E1,-2.5774661E-2,3.4E1,-9.39506E-2,3E-1,1.5159895E9,2.7E1,1.5160426E9,3.1E1,-6.23746E-2,-6.8055703E-3,-1.4205878E-2,3.2333244E-2,1.4E-1,5.1E-1,5.71E-1,-9.411951E-3,-9.4928354E-2,2.1E1,2.86E0,1.5160271E9,1.1E1,-4.12947E-2,5.36128E-2,1.5160317E9,-8.461876E-2,-4.702874E-2,-1.0099097E-1,3.0769232E-1,3.7E1,-9.544523E-2,1.5160411E9,-9.874934E-2,1.5159963E9,8E-2,-9.683983E-2,4.6E1,9.589E-2,1.2E1,3.521111E-1,1.2452108E0,-3.251033E-2,-8.707471E-2,-1.8149305E-2,4.1E1,1.5160177E9,1.5160096E9,1.5160022E9,3.9E1,4.033126E-2,1.516034E9,2.1330003E-2,-9.651348E-3,2.5E2,-9.779852E-2,-8.3323605E-2,-5.17865E-2,1E0,1.2E1,-9.3288705E-2,1.5159973E9,-7.891657E-2,-3.3778455E-2,3.8E1,-9.578087E-2,1.5159954E9,-9.8610304E-2,4.507003E-3,3.6E1,1.5160271E9,-1.0250135E-1,7.6E-1,1.5159946E9,-7.494024E-2,-2.1809839E-2,4E1,1.5160311E9,4.745827E-3,2.5E1,-3.0284172E-2,-6.8270035E-2,-2.9032657E-2,5.054676E-3,1.5491745E-2,-2.8055096E-2,-8.772927E-2,-9.361539E-3,-1.7348256E-2,-4.9644694E-2,1.5160474E9,2.4E1,-4.248143E-2,1.5159997E9,3.7E1,-9.069504E-2,-9.092305E-2,1.5159991E9,2.3E1,1.7E1,-9.79551E-2,1.5160329E9,5.48E-1,2.1E1,-5.5454053E-2,2.3E1,-2.0223802E-2,2.1792939E-2,-6.538372E-2,1.9E1,6.747424E-2,8.149032E-3,-1.885992E-2,-7.533725E-2,-8.42497E-2,-5.0088074E-2,-9.681272E-2,-8.0159985E-2,-7.612728E-2,-2.2937234E-2,-1.8832825E-2,-7.1843795E-2,-3.5369582E-2,-8.0760986E-2,-4.7167424E-2,-1.691143E-3,-3.1951346E-2,-7.717409E-2,-5.281164E-2,-8.765993E-2,-3.6753096E-2,-8.345773E-2,-8.4964804E-2,-5.0745368E-2,1.0157267E-2,-4.3989208E-2],"split_indices":[3,1,5,5,2,1,5,1,5,1,0,4,3,8,2,0,2,0,0,8,2,1,1,1,1,4,8,0,8,0,1,2,0,2,8,0,0,0,0,1,1,1,0,0,8,1,2,8,0,0,2,0,0,0,1,0,0,2,0,2,1,0,8,1,8,1,1,0,0,0,8,2,2,2,8,0,2,0,0,3,0,0,0,1,8,0,2,0,0,0,0,2,0,0,8,2,0,1,2,0,0,8,2,0,8,0,0,0,0,0,0,0,0,0,0,2,0,0,2,0,0,0,2,8,7,0,2,1,0,0,7,0,0,0,7,0,0,0,0,0,0,0,0,0,0,0,0,0,0,0,0,0,0,0,0,0,0,0,0,0,0],"split_type":[0,0,0,0,0,0,0,0,0,0,0,0,0,0,0,0,0,0,0,0,0,0,0,0,0,0,0,0,0,0,0,0,0,0,0,0,0,0,0,0,0,0,0,0,0,0,0,0,0,0,0,0,0,0,0,0,0,0,0,0,0,0,0,0,0,0,0,0,0,0,0,0,0,0,0,0,0,0,0,0,0,0,0,0,0,0,0,0,0,0,0,0,0,0,0,0,0,0,0,0,0,0,0,0,0,0,0,0,0,0,0,0,0,0,0,0,0,0,0,0,0,0,0,0,0,0,0,0,0,0,0,0,0,0,0,0,0,0,0,0,0,0,0,0,0,0,0,0,0,0,0,0,0,0,0,0,0,0,0,0,0],"sum_hessian":[6.53548E3,5.2743228E3,1.2611569E3,5.206019E3,6.830384E1,1.1158335E3,1.4532344E2,3.9286934E3,1.2773257E3,5.836513E1,9.938706E0,8.8466077E2,2.3117264E2,9.4001205E1,5.1322235E1,3.5101218E3,4.1857156E2,1.0917614E3,1.8556435E2,2.9636301E1,2.872883E1,8.426853E2,4.1975513E1,8.075797E1,1.5041467E2,5.6474102E1,3.7527103E1,1.361554E1,3.7706696E1,5.429378E2,2.9671838E3,2.482159E2,1.7035568E2,7.2525995E2,3.6650137E2,1.601584E1,1.36204605E1,1.5523651E1,1.3205179E1,2.804316E2,5.6225366E2,2.4408875E1,1.756664E1,3.680731E1,4.395067E1,1.0475327E2,4.5661392E1,4.4689293E1,1.1784809E1,1.2931933E1,2.459517E1,2.0516096E1,1.71906E1,2.08875E3,8.78434E2,2.4386847E1,2.2382906E2,1.2755658E2,4.27991E1,6.9902563E2,2.6234333E1,1.8047018E2,1.860312E2,2.2780966E2,5.2621937E1,1.583087E2,4.0394498E2,1.4863348E1,9.545526E0,1.734563E1,2.6605038E1,7.644959E1,2.8303682E1,2.2492792E1,2.31686E1,1.4963375E1,2.9725918E1,1.1109261E1,1.34859085E1,3.35432E1,8.448908E2,1.2489833E1,1.1897015E1,2.1111055E1,1.06445526E2,7.127498E1,6.277507E2,1.3858235E1,1.2376098E1,9.5665306E1,9.036589E1,2.0028262E2,2.7527048E1,1.30569935E1,3.956494E1,8.944165E1,6.886706E1,1.9191373E2,2.1203125E2,1.1606195E1,1.4998841E1,2.6989017E1,4.9460575E1,1.0112883E1,1.81908E1,1.050541E1,1.1987383E1,1.3760152E1,9.408448E0,1.3525659E1,1.6200258E1,1.606635E1,1.7476852E1,1.0029232E1,1.1081823E1,2.2334513E1,8.4111015E1,1.4523145E1,6.1322754E2,6.3008816E1,3.2656494E1,1.9268003E1,1.8101462E2,2.000224E1,1.9562702E1,3.919726E1,5.0244385E1,8.236919E1,1.0954454E2,1.6842741E1,1.951885E2,1.6853844E1,1.0135175E1,1.2533127E1,3.692745E1,9.040737E0,9.150063E0,1.0406572E1,1.1927941E1,7.263334E1,1.1477675E1,3.2754322E1,5.804732E2,5.3115875E1,9.892938E0,9.292457E0,1.7172215E2,9.883493E0,1.0118747E1,1.044054E1,9.122162E0,9.621962E0,4.062242E1,3.390504E1,4.846415E1,8.372002E1,2.5824524E1,1.8362387E2,1.1564634E1,1.6288479E1,2.0638971E1],"tree_param":{"num_deleted":"0","num_feature":"9","num_nodes":"161","size_leaf_vector":"1"}},{"base_weights":[-8.520505E-1,-9.240076E-1,-5.605174E-1,-9.3369126E-1,-2.2895524E-1,-6.164878E-1,-1.4678894E-1,-9.6198744E-1,-8.4684485E-1,-1.4515965E-1,-6.812363E-2,-6.979867E-1,-3.133955E-1,6.8432674E-2,-5.5518913E-1,-9.7557443E-1,-8.4726495E-1,-8.2658666E-1,-9.620237E-2,-3.5428202E-1,6.807663E-2,-7.154152E-1,-3.5086554E-1,-6.106455E-1,-1.5694907E-1,-1.190996E-1,1.373505E-1,-3.5449085E-1,-7.409911E-1,-9.243433E-2,-9.846527E-1,-9.1717297E-1,-7.420241E-1,-7.8778887E-1,-9.015735E-1,-6.7686655E-2,-1.2175131E-2,-1.3015422E-2,2.8670108E-2,-6.4893657E-1,-7.475819E-1,-5.3749454E-1,-8.584106E-3,-9.350392E-1,-3.383563E-1,-8.368358E-2,-3.2255042E-1,1.6811585E-2,-4.666343E-2,-1.8829929E-2,1.9275187E-1,-7.2188206E-2,-5.3511965E-3,-4.2011157E-2,-9.205E-2,-1.0004409E-1,-9.4609743E-1,-6.80779E-1,-9.4016775E-2,-6.584235E-1,-9.759407E-2,-7.952884E-1,-5.6928027E-1,-9.551969E-1,-8.448819E-1,-7.287282E-1,-3.0955178E-1,-9.032481E-1,-6.8552566E-1,-8.094909E-2,-2.5094828E-2,-6.577818E-2,-1.0090196E-1,-2.1722001E-1,-5.083995E-2,-2.1237628E-1,2.4815907E-1,-4.8876858E-1,-1.3282387E-1,2.8085577E-1,1.1175673E-1,-4.575345E-1,-9.658056E-2,-8.127206E-2,-4.913481E-2,-3.347629E-1,-7.209673E-1,-7.408424E-1,-8.264669E-1,-7.663677E-2,-3.150607E-2,-9.7264856E-2,-7.118089E-2,-7.436484E-1,-9.43883E-2,-6.908307E-1,-9.7444005E-2,4.0736096E-3,-4.277178E-1,-8.063346E-1,-1.0169925E-1,-5.613148E-1,-7.831347E-1,1.484206E-2,-4.983989E-2,-1.5065165E-1,-5.127996E-2,5.309365E-2,9.541133E-2,-2.8194023E-2,-6.238407E-2,2.594095E-3,-3.2336365E-2,-8.524344E-3,4.6717614E-2,5.048163E-2,-9.077494E-2,-8.591095E-2,-8.544969E-3,-1.5992476E-2,-4.696815E-2,-4.8326528E-1,-7.789773E-1,-7.6254946E-1,-1.5141941E-2,-9.7397126E-2,-7.897802E-1,-6.5592426E-1,-8.898339E-2,-8.9221194E-2,-6.647403E-1,-5.9703242E-2,-2.6296976E-1,-9.676953E-2,-6.663767E-1,-7.000936E-1,-4.0886375E-1,-8.151104E-1,-6.197659E-1,-2.2559662E-1,6.2781097E-3,3.0408606E-2,-1.3935446E-2,-2.6429608E-2,1.0870084E-2,-7.336007E-2,-1.6103653E-2,-8.20935E-2,-4.7456067E-2,-9.133578E-2,-7.040085E-2,-8.9927204E-2,-7.499682E-2,-7.366147E-2,-2.126353E-2,-1.740204E-2,-6.91323E-2,-4.018016E-2,-8.760228E-3,-2.982299E-2,-7.4725665E-2,-7.5207345E-2,-3.0286897E-2,-7.943857E-2,-2.2411285E-2,-6.64638E-2,-8.513485E-2,-7.688925E-2,-5.1693078E-2,-1.3358577E-2,-3.5858624E-2],"categories":[],"categories_nodes":[],"categories_segments":[],"categories_sizes":[],"default_left":[0,0,1,1,0,0,0,0,0,0,0,1,0,0,0,0,0,1,0,0,0,0,0,0,0,0,0,0,0,0,0,0,1,0,0,0,0,0,0,0,0,0,0,0,0,0,0,0,0,0,0,0,0,0,0,0,0,0,0,0,0,0,0,0,0,0,0,0,0,0,0,0,0,0,0,0,0,0,0,0,0,0,0,0,0,0,0,0,0,0,0,0,0,0,0,0,0,0,0,0,0,0,0,0,0,0,0,0,0,0,0,0,0,0,0,0,0,0,0,0,0,0,1,0,0,0,0,0,0,0,0,0,0,0,0,0,0,0,0,0,0,0,0,0,0,0,0,0,0,0,0,0,0,0,0,0,0,0,0,0,0,0,0,0,0,0,0,0,0,0,0],"id":10,"left_children":[1,3,5,7,9,11,13,15,17,19,-1,21,23,25,27,29,31,33,-1,35,37,39,41,43,45,47,49,51,53,-1,55,57,59,61,63,-1,-1,-1,-1,65,67,69,-1,71,73,75,77,-1,-1,-1,79,-1,-1,-1,-1,-1,81,83,-1,85,-1,87,89,91,93,95,97,99,101,-1,-1,-1,-1,103,-1,105,107,109,111,113,115,117,-1,-1,-1,119,121,123,125,-1,-1,-1,-1,127,-1,129,-1,-1,131,133,-1,135,137,-1,-1,139,-1,-1,141,-1,-1,-1,-1,-1,-1,-1,143,-1,-1,-1,-1,145,147,149,-1,-1,151,153,-1,-1,155,-1,157,-1,159,161,163,165,167,169,-1,-1,-1,-1,-1,-1,-1,-1,-1,-1,-1,-1,-1,-1,-1,-1,-1,-1,-1,-1,-1,-1,-1,-1,-1,-1,-1,-1,-1,-1,-1],"loss_changes":[1.2639111E2,3.2433594E1,2.7700684E1,1.0940918E1,2.4773188E0,2.5886444E1,1.2723614E1,4.7858887E0,1.9671631E0,2.6381602E0,0E0,4.7827454E0,1.0403095E1,1.2494168E0,1.5987873E0,5.839844E-1,2.180542E0,2.239624E0,0E0,2.1496885E0,1.3315506E0,1.2069702E0,2.0184422E0,6.5294704E0,1.7839801E0,2.6911473E0,1.3033689E0,2.8269057E0,1.0535326E0,0E0,7.055664E-1,6.070709E-1,2.4951706E0,6.552124E-1,2.2290039E-1,0E0,0E0,0E0,0E0,6.9672318E0,4.46875E0,1.6910439E0,0E0,5.0107956E-2,7.8977776E-1,4.529558E0,1.3678031E0,0E0,0E0,0E0,4.0044308E-1,0E0,0E0,0E0,0E0,0E0,7.3268433E0,1.9960785E-1,0E0,2.2137184E0,0E0,4.9313354E-1,1.0589514E0,1.4678955E-2,1.035408E0,1.3224869E0,2.1821795E0,8.00087E-1,4.176361E0,0E0,0E0,0E0,0E0,2.87738E0,0E0,1.3334482E0,1.2345728E0,4.9020386E-1,6.9171596E-1,1.9718764E0,2.687989E0,4.885147E0,0E0,0E0,0E0,4.322257E-1,1.0131073E0,3.0417633E0,1.4246216E0,0E0,0E0,0E0,0E0,5.758972E-1,0E0,4.0052795E-1,0E0,0E0,9.362712E-1,1.2563744E0,0E0,3.3329468E0,5.9529114E-1,0E0,0E0,1.0462853E0,0E0,0E0,1.0485474E0,0E0,0E0,0E0,0E0,0E0,0E0,0E0,8.1622756E-1,0E0,0E0,0E0,0E0,1.6889977E0,6.2418365E-1,1.4559937E0,0E0,0E0,7.63855E-1,2.0007668E0,0E0,0E0,2.1147995E0,0E0,4.9194932E-1,0E0,1.2151394E0,1.5921783E0,5.7992344E0,3.7752533E-1,1.9533539E-1,5.3912616E-1,0E0,0E0,0E0,0E0,0E0,0E0,0E0,0E0,0E0,0E0,0E0,0E0,0E0,0E0,0E0,0E0,0E0,0E0,0E0,0E0,0E0,0E0,0E0,0E0,0E0,0E0,0E0,0E0,0E0,0E0,0E0],"parents":[2147483647,0,0,1,1,2,2,3,3,4,4,5,5,6,6,7,7,8,8,9,9,11,11,12,12,13,13,14,14,15,15,16,16,17,17,19,19,20,20,21,21,22,22,23,23,24,24,25,25,26,26,27,27,28,28,30,30,31,31,32,32,33,33,34,34,39,39,40,40,41,41,43,43,44,44,45,45,46,46,50,50,56,56,57,57,59,59,61,61,62,62,63,63,64,64,65,65,66,66,67,67,68,68,73,73,75,75,76,76,77,77,78,78,79,79,80,80,81,81,85,85,86,86,87,87,88,88,93,93,95,95,98,98,99,99,101,101,102,102,105,105,108,108,116,116,121,121,122,122,123,123,126,126,127,127,130,130,132,132,134,134,135,135,136,136,137,137,138,138,139,139],"right_children":[2,4,6,8,10,12,14,16,18,20,-1,22,24,26,28,30,32,34,-1,36,38,40,42,44,46,48,50,52,54,-1,56,58,60,62,64,-1,-1,-1,-1,66,68,70,-1,72,74,76,78,-1,-1,-1,80,-1,-1,-1,-1,-1,82,84,-1,86,-1,88,90,92,94,96,98,100,102,-1,-1,-1,-1,104,-1,106,108,110,112,114,116,118,-1,-1,-1,120,122,124,126,-1,-1,-1,-1,128,-1,130,-1,-1,132,134,-1,136,138,-1,-1,140,-1,-1,142,-1,-1,-1,-1,-1,-1,-1,144,-1,-1,-1,-1,146,148,150,-1,-1,152,154,-1,-1,156,-1,158,-1,160,